{"learner":{"attributes":{},"gradient_booster":{"model":{"gbtree_model_param":{"num_trees":"100","size_leaf_vector":"0"},"tree_info":[0,0,0,0,0,0,0,0,0,0,0,0,0,0,0,0,0,0,0,0,0,0,0,0,0,0,0,0,0,0,0,0,0,0,0,0,0,0,0,0,0,0,0,0,0,0,0,0,0,0,0,0,0,0,0,0,0,0,0,0,0,0,0,0,0,0,0,0,0,0,0,0,0,0,0,0,0,0,0,0,0,0,0,0,0,0,0,0,0,0,0,0,0,0,0,0,0,0,0,0],"trees":[{"base_weights":[-4.6256983E-1,2.2772278E-1,-1.0222223E0,1.4871795E0,9.214092E-2,2.3529412E-1,-1.1053764E0,4.4230768E-1,-3.5151514E-1,-1.0526316E-1,5.263158E-1,-9.97389E-1,-1.5348837E0,9.189189E-1,-9.90099E-2,-2.6666668E-1,-9.4736844E-1,6.666667E-1,-9.0909094E-1,-1.0329671E0,-2.6086956E-1,6.896552E-2,-8.888889E-1,-3.75E-1,3.0769232E-1,-3.8297874E-1,5.4545456E-1,-2.9508197E-1,-1.2E0,1E0,-0E0],"default_left":[true,false,false,false,true,false,true,false,true,false,false,true,false,false,true,true,false,false,false,false,false,true,false,true,false,false,false,false,false,false,false],"id":0,"leaf_child_counts":[0,0,0,0,0,0,0,0,0,0,0,0,0,0,0,0,0,0,0,0,0,0,0,0,0,0,0,0,0,0,0],"left_children":[1,3,5,-1,7,9,11,13,15,17,-1,19,-1,-1,21,23,-1,-1,-1,-1,-1,25,-1,27,29,-1,-1,-1,-1,-1,-1],"loss_changes":[8.667276E1,1.7109676E1,1.3200333E1,0E0,1.4486849E1,8.978329E-1,3.860962E0,1.350688E1,1.8328552E0,3.553429E0,0E0,2.2395477E0,0E0,0E0,3.4114792E0,2.4487178E0,0E0,0E0,0E0,0E0,0E0,4.892683E0,0E0,1.7557373E0,1.3846154E0,0E0,0E0,0E0,0E0,0E0,0E0],"parents":[2147483647,0,0,1,1,2,2,4,4,5,5,6,6,7,7,8,8,9,9,11,11,14,14,15,15,21,21,23,23,24,24],"right_children":[2,4,6,-1,8,10,12,14,16,18,-1,20,-1,-1,22,24,-1,-1,-1,-1,-1,26,-1,28,30,-1,-1,-1,-1,-1,-1],"split_conditions":[2.5E0,1.75E1,6.5E0,4.4615388E-1,1.5E0,2.5E0,3.25E1,4.45E1,5.05E1,1.5E0,1.5789475E-1,3.075E1,-4.6046513E-1,2.7567568E-1,6.05E1,3.95E1,-2.8421053E-1,2.0000002E-1,-2.7272728E-1,-3.0989015E-1,-7.826087E-2,4.75E1,-2.6666668E-1,3.625E1,4.15E1,-1.1489362E-1,1.6363637E-1,-8.8524595E-2,-3.6E-1,3E-1,-0E0],"split_indices":[0,1,1,0,0,1,1,1,1,1,0,1,0,0,1,1,0,0,0,0,0,1,0,1,1,0,0,0,0,0,0],"sum_hessian":[2.2275E2,1E2,1.2275E2,8.75E0,9.125E1,7.5E0,1.1525E2,5.1E1,4.025E1,3.75E0,3.75E0,9.475E1,2.05E1,2.675E1,2.425E1,3.65E1,3.75E0,2E0,1.75E0,9E1,4.75E0,2.075E1,3.5E0,3.1E1,5.5E0,1.075E1,1E1,2.95E1,1.5E0,1E0,4.5E0],"tree_param":{"num_deleted":"0","num_feature":"2","num_nodes":"31","size_leaf_vector":"0"}},{"base_weights":[-3.350004E-1,1.6312596E-1,-7.4443763E-1,1.142682E0,6.134456E-2,1.762417E-1,-8.0645424E-1,3.1559408E-1,-2.5811553E-1,5.3733444E-1,-1.8083705E-2,-7.205957E-1,-1.1600516E0,6.669089E-1,-7.857342E-2,-1.7029719E-1,-6.3316804E-1,-7.453163E-1,4.0389958E-1,-7.463531E-1,-1.965006E-1,7.4043286E-1,3.9173058E-1,-7.3762345E-1,5.290738E-2,-2.6069447E-1,2.627777E-1,-8.0022395E-1,-3.4488693E-1,1.7393722E-1,5.8113307E-1,-7.0669675E-1,-9.809111E-1,5.1252276E-1,1.091846E0,-3.627785E-2,5.6506556E-1,-1.5875293E-1,-9.255201E-1,1.0311427E0,-1.2579864E-1,-1.8534096E-1,-1.005434E0,6.822626E-1,-1.1764706E-1,-7.5814706E-1,8.8557273E-1,-1.3410867E0,-6.0589945E-1],"default_left":[true,false,false,false,true,false,true,false,false,false,false,true,false,false,false,false,false,false,false,true,false,false,false,false,false,false,false,false,false,false,false,true,false,false,false,false,false,false,false,false,false,false,false,false,false,false,false,false,false],"id":1,"leaf_child_counts":[0,0,0,0,0,0,0,0,0,0,0,0,0,0,0,0,0,0,0,0,0,0,0,0,0,0,0,0,0,0,0,0,0,0,0,0,0,0,0,0,0,0,0,0,0,0,0,0,0],"left_children":[1,3,5,-1,7,9,11,13,15,-1,17,19,-1,21,23,25,27,-1,29,31,-1,33,35,37,39,41,43,-1,-1,-1,-1,45,47,-1,-1,-1,-1,-1,-1,-1,-1,-1,-1,-1,-1,-1,-1,-1,-1],"loss_changes":[4.4828117E1,9.871153E0,7.0218887E0,0E0,7.5037756E0,6.0087496E-1,2.5967102E0,7.161058E0,1.2441447E0,0E0,2.2787461E0,1.1170921E0,0E0,2.6123905E-1,2.2128286E0,1.4241463E0,8.134866E-2,0E0,9.156656E-2,1.3346863E-1,0E0,1.072607E0,6.04267E-1,3.1417036E-1,3.9489627E0,1.4495189E0,1.1140147E0,0E0,0E0,0E0,0E0,7.192272E0,5.753517E-1,0E0,0E0,0E0,0E0,0E0,0E0,0E0,0E0,0E0,0E0,0E0,0E0,0E0,0E0,0E0,0E0],"parents":[2147483647,0,0,1,1,2,2,4,4,5,5,6,6,7,7,8,8,10,10,11,11,13,13,14,14,15,15,16,16,18,18,19,19,21,21,22,22,23,23,24,24,25,25,26,26,31,31,32,32],"right_children":[2,4,6,-1,8,10,12,14,16,-1,18,20,-1,22,24,26,28,-1,30,32,-1,34,36,38,40,42,44,-1,-1,-1,-1,46,48,-1,-1,-1,-1,-1,-1,-1,-1,-1,-1,-1,-1,-1,-1,-1,-1],"split_conditions":[2.5E0,1.75E1,6.5E0,3.428046E-1,1.5E0,1.5E0,3.25E1,4.45E1,5.05E1,1.6120034E-1,2.5E0,3.075E1,-3.480155E-1,3.65E1,4.75E1,3.95E1,6.1E1,-2.235949E-1,4.5E0,2.75E1,-5.8950182E-2,3.15E1,3.85E1,4.525E1,4.95E1,3.625E1,4.25E1,-2.400672E-1,-1.03466086E-1,5.2181166E-2,1.7433992E-1,2.65E1,2.875E1,1.5375683E-1,3.275538E-1,-1.08833555E-2,1.6951968E-1,-4.762588E-2,-2.7765605E-1,3.0934283E-1,-3.7739594E-2,-5.560229E-2,-3.0163023E-1,2.0467879E-1,-3.529412E-2,-2.2744413E-1,2.6567182E-1,-4.0232605E-1,-1.8176985E-1],"split_indices":[0,1,1,0,0,1,1,1,1,0,1,1,0,1,1,1,1,0,1,1,0,1,1,1,1,1,1,0,0,0,0,1,1,0,0,0,0,0,0,0,0,0,0,0,0,0,0,0,0],"sum_hessian":[2.1820253E2,9.871105E1,1.19491486E2,8.32862E0,9.038243E1,7.4247146E0,1.1206677E2,5.0334602E1,4.0047825E1,1.9801326E0,5.444582E0,9.261614E1,1.9450632E1,2.6248138E1,2.4086466E1,3.3627926E1,6.4199004E0,1.7178578E0,3.7267241E0,8.7873405E1,4.742734E0,1.9379467E1,6.868672E0,3.239298E0,2.0847166E1,2.8150093E1,5.4778333E0,2.9402246E0,3.4796755E0,2.4844828E0,1.2422414E0,7.859788E1,9.275526E0,1.3246724E1,6.132743E0,2.2077875E0,4.6608844E0,1.245884E0,1.9934143E0,2.4833388E0,1.8363829E1,2.6697662E1,1.4524307E0,2.2278333E0,3.25E0,7.6645134E1,1.9527423E0,3.417299E0,5.858227E0],"tree_param":{"num_deleted":"0","num_feature":"2","num_nodes":"49","size_leaf_vector":"0"}},{"base_weights":[-2.4853761E-1,1.2311587E-1,-5.629266E-1,9.31395E-1,4.5123328E-2,1.7551006E-1,-6.1115044E-1,1.0690297E0,3.5702398E-1,2.3956007E-1,-1.9630684E-1,-7.931748E-2,4.1163772E-1,-5.3798914E-1,-9.345203E-1,-2.1120283E-1,7.531095E-1,5.1084423E-1,-5.7325307E-2,-1.2587404E-1,-5.03251E-1,4.3776643E-1,-6.2302494E-1,-5.578452E-1,-1.482735E-1,-9.6065515E-1,-2.6188186E-1,1.891294E-1,5.420588E-1,7.067227E-2,-6.657525E-1,-1.9660789E-1,2.1253212E-1,-6.474546E-1,-2.6678333E-1,-5.207795E-1,-7.919376E-1,6.2104267E-1,3.009414E-1,-6.0530955E-1,2.207876E-1,-2.2178943E-1,-8.1094843E-1,-1.3223678E-1,-8.701064E-1,5.5127364E-1,-9.068181E-2,-5.6273955E-1,6.9636744E-1,-1.1262192E0,-4.6727034E-1],"default_left":[true,false,false,false,true,false,true,false,false,false,false,false,false,true,false,false,false,false,true,false,false,false,false,true,false,false,false,false,false,false,false,false,false,false,false,true,false,false,false,false,false,false,false,false,false,false,false,false,false,false,false],"id":2,"leaf_child_counts":[0,0,0,0,0,0,0,0,0,0,0,0,0,0,0,0,0,0,0,0,0,0,0,0,0,0,0,0,0,0,0,0,0,0,0,0,0,0,0,0,0,0,0,0,0,0,0,0,0,0,0],"left_children":[1,3,5,7,9,11,13,-1,15,17,19,21,-1,23,25,-1,-1,27,29,31,33,-1,-1,35,-1,-1,-1,-1,37,39,41,43,45,-1,-1,47,49,-1,-1,-1,-1,-1,-1,-1,-1,-1,-1,-1,-1,-1,-1],"loss_changes":[2.468769E1,6.0964403E0,4.1782455E0,2.9171658E-1,4.265149E0,5.0108534E-1,2.0413246E0,0E0,8.675754E-1,4.074227E0,8.151145E-1,1.5611202E0,0E0,6.141224E-1,7.335663E-2,0E0,0E0,1.6202927E-1,1.98455E0,8.6481774E-1,7.45002E-2,0E0,0E0,3.2791328E-1,0E0,0E0,0E0,0E0,2.602234E-1,2.3111768E0,1.0507071E-1,1.1404103E0,7.0990145E-1,0E0,0E0,4.302994E0,5.311265E-1,0E0,0E0,0E0,0E0,0E0,0E0,0E0,0E0,0E0,0E0,0E0,0E0,0E0,0E0],"parents":[2147483647,0,0,1,1,2,2,3,3,4,4,5,5,6,6,8,8,9,9,10,10,11,11,13,13,14,14,17,17,18,18,19,19,20,20,23,23,28,28,29,29,30,30,31,31,32,32,35,35,36,36],"right_children":[2,4,6,8,10,12,14,-1,16,18,20,22,-1,24,26,-1,-1,28,30,32,34,-1,-1,36,-1,-1,-1,-1,38,40,42,44,46,-1,-1,48,50,-1,-1,-1,-1,-1,-1,-1,-1,-1,-1,-1,-1,-1,-1],"split_conditions":[2.5E0,1.75E1,5.5E0,1.55E1,1.5E0,2.5E0,3.25E1,3.2070893E-1,1.65E1,4.45E1,5.05E1,1.5E0,1.23491324E-1,3.075E1,6E1,-6.3360855E-2,2.2593287E-1,2.15E1,6.05E1,3.95E1,6.1E1,1.3132994E-1,-1.8690749E-1,2.75E1,-4.4482052E-2,-2.8819656E-1,-7.856456E-2,5.673882E-2,3.65E1,4.75E1,6.35E1,3.625E1,4.25E1,-1.942364E-1,-8.0035E-2,2.65E1,2.875E1,1.8631281E-1,9.0282425E-2,-1.8159287E-1,6.623628E-2,-6.653684E-2,-2.4328454E-1,-3.9671034E-2,-2.6103193E-1,1.653821E-1,-2.7204545E-2,-1.6882187E-1,2.0891024E-1,-3.3786577E-1,-1.4018111E-1],"split_indices":[0,1,1,1,0,1,1,0,1,1,1,1,0,1,1,0,0,1,1,1,1,0,0,1,0,0,0,0,1,1,1,1,1,0,0,1,1,0,0,0,0,0,0,0,0,0,0,0,0,0,0],"sum_hessian":[2.0969493E2,9.637457E1,1.1332036E2,7.518118E0,8.885645E1,6.7849607E0,1.065354E2,5.3700843E0,2.1480336E0,4.922259E1,3.963386E1,3.582663E0,3.2022977E0,8.90515E1,1.7483898E1,1.0740168E0,1.0740168E0,2.5343681E1,2.3878908E1,3.33836E1,6.2502627E0,1.9361598E0,1.6465033E0,8.4323784E1,4.727713E0,1.6417807E1,1.0660913E0,2.8658333E0,2.2477848E1,2.0458752E1,3.420156E0,2.795868E1,5.4249206E0,2.8029387E0,3.4473243E0,7.558111E1,8.742679E0,1.5744631E1,6.7332172E0,3.166671E0,1.7292082E1,1.4657811E0,1.9543748E0,2.6611563E1,1.3471162E0,2.1759326E0,3.2489882E0,7.3582085E1,1.9990227E0,3.0911496E0,5.651529E0],"tree_param":{"num_deleted":"0","num_feature":"2","num_nodes":"51","size_leaf_vector":"0"}},{"base_weights":[-1.8828094E-1,8.960661E-2,-4.309255E-1,7.961047E-1,2.656653E-2,-2.1762324E-2,-4.8814142E-1,9.181793E-1,3.1247842E-1,5.8775555E-2,-8.1106436E-1,-2.2588111E-1,6.887647E-1,-4.381197E-1,-8.8813496E-1,2.3013183E-1,1.0369693E0,2.1904182E-1,-1.3303207E-1,1.1648885E-1,-7.598001E-1,-5.9013003E-1,-3.881569E-1,-9.420806E-1,-2.2556712E-1,3.3666542E-1,-7.8914195E-2,-2.774491E-1,-3.3068042E-2,-2.045942E-2,4.9001974E-1,-2.6412517E-1,-6.261244E-1,-3.217015E-1,-5.226509E-1,4.3211603E-1,2.0541513E-1,-2.1119057E-1,2.7414305E-2,-1.3354503E-1,-5.960977E-1,1.307031E-1,-1.9073452E-1,3.587308E-1,-2.353692E-1,-3.7202182E-1,5.59638E-1,-9.839093E-1,-3.9974338E-1],"default_left":[true,false,false,false,true,false,true,true,false,true,false,false,false,false,false,false,false,false,true,false,false,false,true,false,false,false,false,true,false,false,false,false,false,true,false,false,false,false,false,false,false,false,false,false,false,false,false,false,false],"id":3,"leaf_child_counts":[0,0,0,0,0,0,0,0,0,0,0,0,0,0,0,0,0,0,0,0,0,0,0,0,0,0,0,0,0,0,0,0,0,0,0,0,0,0,0,0,0,0,0,0,0,0,0,0,0],"left_children":[1,3,5,7,9,11,13,15,-1,17,-1,19,-1,21,23,-1,-1,25,27,29,-1,31,33,-1,-1,35,37,39,41,43,-1,-1,-1,45,47,-1,-1,-1,-1,-1,-1,-1,-1,-1,-1,-1,-1,-1,-1],"loss_changes":[1.3640981E1,4.203904E0,2.5146217E0,1.6985321E-1,2.4252985E0,2.2266288E0,1.5034294E0,2.2409725E-1,0E0,2.666567E0,0E0,2.2539647E0,0E0,4.2445183E-1,1.2849522E-1,0E0,0E0,1.6779513E0,5.636303E-1,4.236034E-1,0E0,6.1848164E-2,4.3680382E-1,0E0,0E0,3.3684754E-1,2.0475803E-1,6.584172E-1,6.596863E-1,6.4475864E-1,0E0,0E0,0E0,2.3325605E0,7.848859E-1,0E0,0E0,0E0,0E0,0E0,0E0,0E0,0E0,0E0,0E0,0E0,0E0,0E0,0E0],"parents":[2147483647,0,0,1,1,2,2,3,3,4,4,5,5,6,6,7,7,9,9,11,11,13,13,14,14,17,17,18,18,19,19,21,21,22,22,25,25,26,26,27,27,28,28,29,29,33,33,34,34],"right_children":[2,4,6,8,10,12,14,16,-1,18,-1,20,-1,22,24,-1,-1,26,28,30,-1,32,34,-1,-1,36,38,40,42,44,-1,-1,-1,46,48,-1,-1,-1,-1,-1,-1,-1,-1,-1,-1,-1,-1,-1,-1],"split_conditions":[2.5E0,1.75E1,1.55E1,1.55E1,6.35E1,1.15E1,3.95E1,1.5E0,9.374353E-2,1.5E0,-2.4331932E-1,6.5E0,2.0662941E-1,2.15E1,6E1,6.903955E-2,3.110908E-1,5.35E1,2.75E1,4.5E0,-2.2794004E-1,1.65E1,2.75E1,-2.8262419E-1,-6.767014E-2,3.65E1,6.25E1,2.45E1,3.45E1,1.5E0,1.4700593E-1,-7.923755E-2,-1.8783732E-1,2.65E1,2.875E1,1.2963481E-1,6.1624542E-2,-6.3357174E-2,8.224292E-3,-4.0063508E-2,-1.7882931E-1,3.9210934E-2,-5.722036E-2,1.0761924E-1,-7.061076E-2,-1.1160655E-1,1.6789141E-1,-2.951728E-1,-1.1992302E-1],"split_indices":[0,1,1,1,1,1,1,0,0,0,0,1,0,1,1,0,0,1,1,1,0,1,1,0,0,1,1,1,1,1,0,0,0,1,1,0,0,0,0,0,0,0,0,0,0,0,0,0,0],"sum_hessian":[2.0073201E2,9.3864655E1,1.06867355E2,6.73673E0,8.712793E1,1.3279959E1,9.35874E1,4.661554E0,2.0751765E0,8.47971E1,2.3308315E0,1.0846183E1,2.4337761E0,8.504704E1,8.540353E0,1.1187729E0,3.5427809E0,4.6119568E1,3.867753E1,7.0848923E0,3.7612903E0,1.8363947E1,6.66831E1,7.5072556E0,1.0330971E0,3.2972965E1,1.3146601E1,1.5094771E1,2.3582756E1,5.8758473E0,1.2090449E0,2.6550283E0,1.5708918E1,4.690073E1,1.978237E1,1.7762815E1,1.5210151E1,5.4189854E0,7.7276154E0,1.1376265E1,3.7185073E0,1.1651323E1,1.1931434E1,1.8834475E0,3.9924E0,4.491423E1,1.9864993E0,2.6882782E0,1.7094091E1],"tree_param":{"num_deleted":"0","num_feature":"2","num_nodes":"49","size_leaf_vector":"0"}},{"base_weights":[-1.4227924E-1,6.6645876E-2,-3.304954E-1,6.9182E-1,1.5146942E-2,-2.708222E-1,-6.613997E-1,8.1237924E-1,2.5719252E-1,4.095788E-2,-6.8200135E-1,1.3367788E-1,-3.045136E-1,-6.810401E-1,-1.9450909E-1,1.9797912E-1,9.293704E-1,1.6032042E-1,-9.98419E-2,-9.3128E-2,3.3972955E-1,-3.2179168E-1,-1.383628E-2,-4.5934373E-1,-8.139174E-1,2.9855183E-1,1.2968606E-2,-2.7954614E-1,-3.876633E-2,2.948476E-1,-4.914053E-1,-2.907995E-1,-5.378876E-1,8.8029355E-3,-2.592286E-2,-5.503985E-1,-1.0327395E-1,1.3377723E-1,4.5188957E-1,-4.347675E-1,1.2142022E-1,-7.941043E-2,-7.733401E-1,4.4893497E-1,-9.745407E-2,-3.188998E-1,4.5520538E-1,-8.779574E-1,-2.715133E-1],"default_left":[true,false,true,false,true,false,false,true,false,true,false,false,true,false,false,false,false,false,true,false,false,true,false,false,false,false,false,true,false,false,false,true,false,false,false,false,false,false,false,false,false,false,false,false,false,false,false,false,false],"id":4,"leaf_child_counts":[0,0,0,0,0,0,0,0,0,0,0,0,0,0,0,0,0,0,0,0,0,0,0,0,0,0,0,0,0,0,0,0,0,0,0,0,0,0,0,0,0,0,0,0,0,0,0,0,0],"left_children":[1,3,5,7,9,11,13,15,-1,17,-1,19,21,23,-1,-1,-1,25,27,29,-1,31,33,35,-1,37,39,41,43,-1,-1,45,47,-1,-1,-1,-1,-1,-1,-1,-1,-1,-1,-1,-1,-1,-1,-1,-1],"loss_changes":[7.6647835E0,2.9819217E0,1.8431625E0,1.6053367E-1,1.5914834E0,1.2462635E0,4.655361E-3,1.7948198E-1,0E0,1.4400603E0,0E0,3.819749E-1,4.0719938E-1,3.708315E-2,0E0,0E0,0E0,9.3800795E-1,4.2261E-1,8.1757855E-1,0E0,3.6142063E-1,1.7724559E-3,1.8707931E-1,0E0,5.412309E-1,1.1903919E0,9.1266096E-1,9.206062E-1,0E0,0E0,1.6083646E0,5.335405E-1,0E0,0E0,0E0,0E0,0E0,0E0,0E0,0E0,0E0,0E0,0E0,0E0,0E0,0E0,0E0,0E0],"parents":[2147483647,0,0,1,1,2,2,3,3,4,4,5,5,6,6,7,7,9,9,11,11,12,12,13,13,17,17,18,18,19,19,21,21,22,22,23,23,25,25,26,26,27,27,28,28,31,31,32,32],"right_children":[2,4,6,8,10,12,14,16,-1,18,-1,20,22,24,-1,-1,-1,26,28,30,-1,32,34,36,-1,38,40,42,44,-1,-1,46,48,-1,-1,-1,-1,-1,-1,-1,-1,-1,-1,-1,-1,-1,-1,-1,-1],"split_conditions":[2.5E0,1.75E1,3.25E1,1.55E1,6.35E1,5.5E0,6E1,1.5E0,7.715776E-2,1.5E0,-2.0460041E-1,2.5E0,3.075E1,3.95E1,-5.8352727E-2,5.9393737E-2,2.7881113E-1,4.35E1,2.35E1,1.5E0,1.0191887E-1,2.75E1,3.15E1,3.75E1,-2.4417523E-1,3.15E1,4.75E1,2.25E1,2.45E1,8.8454284E-2,-1.474216E-1,2.65E1,2.875E1,2.6408806E-3,-7.776858E-3,-1.6511956E-1,-3.0982187E-2,4.013317E-2,1.3556688E-1,-1.3043027E-1,3.6426067E-2,-2.3823129E-2,-2.3200203E-1,1.346805E-1,-2.9236222E-2,-9.566995E-2,1.3656162E-1,-2.6338723E-1,-8.1453994E-2],"split_indices":[0,1,1,1,1,1,1,0,0,0,0,1,1,1,0,0,0,1,1,1,0,1,1,1,0,1,1,1,1,0,0,1,1,0,0,0,0,0,0,0,0,0,0,0,0,0,0,0,0],"sum_hessian":[1.9335808E2,9.194381E1,1.0141426E2,6.0512047E0,8.589261E1,8.74606E1,1.3953657E1,4.056776E0,1.9944288E0,8.3733734E1,2.1588745E0,6.496439E0,8.0964165E1,1.2950215E1,1.0034412E0,1.079555E0,2.977221E0,4.5241642E1,3.849209E1,3.3533566E0,3.1430824E0,7.632058E1,4.6435876E0,6.523356E0,6.4268594E0,2.2813797E1,2.2427845E1,8.856456E0,2.9635633E1,1.8301942E0,1.5231625E0,6.879919E1,7.5213895E0,1.7107954E0,2.9327922E0,4.760287E0,1.7630692E0,1.1899353E1,1.0914444E1,3.7865272E0,1.864132E1,7.128199E0,1.728257E0,2.4689386E0,2.7166695E1,6.685349E1,1.945698E0,2.2952182E0,5.2261715E0],"tree_param":{"num_deleted":"0","num_feature":"2","num_nodes":"49","size_leaf_vector":"0"}},{"base_weights":[-1.0761098E-1,4.997495E-2,-2.536354E-1,7.254213E-1,1.4527161E-2,-2.0208204E-1,-5.5897856E-1,1.7042491E-1,8.431075E-1,1.187189E-1,-1.0972131E-1,1.8610334E-2,-2.4070758E-1,2.4506265E-1,-1.5719731E-1,-4.908348E-1,-6.5188095E-2,-1.6560729E-1,5.937616E-1,-3.5033E-1,-1.66644E-1,7.29109E-1,2.051504E-1,-3.1289774E-1,4.974646E-3,-2.324749E-2,-3.9127108E-1,8.1639245E-2,-5.756757E-1,-3.1084874E-1,-5.201653E-1,1.8600696E-1,-2.1270043E-1,1.3415112E-1,4.6891162E-1,-9.431984E-2,-7.938543E-1,-6.1670147E-2,4.9083593E-1,-3.7516482E-2,4.1020766E-1,-3.592113E-1,7.606765E-2,-2.1165248E-3,3.727019E-1,-7.927008E-1,-1.6279988E-1],"default_left":[true,false,true,true,true,false,false,false,false,false,true,false,false,false,false,false,false,false,false,false,false,false,false,false,false,false,false,false,false,false,false,false,false,false,false,false,false,false,false,false,false,false,false,false,false,false,false],"id":5,"leaf_child_counts":[0,0,0,0,0,0,0,0,0,0,0,0,0,0,0,0,0,0,0,0,0,0,0,0,0,0,0,0,0,0,0,0,0,0,0,0,0,0,0,0,0,0,0,0,0,0,0],"left_children":[1,3,5,7,9,11,-1,-1,-1,13,15,17,19,21,23,-1,25,27,-1,29,31,-1,33,35,-1,37,-1,39,-1,41,-1,43,45,-1,-1,-1,-1,-1,-1,-1,-1,-1,-1,-1,-1,-1,-1],"loss_changes":[4.3367176E0,2.1733575E0,1.4249306E0,1.5204406E-1,1.148157E0,7.3033595E-1,0E0,0E0,0E0,1.7178031E0,6.5559083E-1,1.540509E0,5.3056765E-1,4.9631786E-1,3.989757E-1,0E0,5.02761E-1,1.1715274E0,0E0,2.8343916E-2,7.736645E-1,0E0,5.41548E-1,7.7091634E-1,0E0,7.0629734E-1,0E0,3.2057709E-1,0E0,5.041225E-1,0E0,2.028969E-1,1.0414811E0,0E0,0E0,0E0,0E0,0E0,0E0,0E0,0E0,0E0,0E0,0E0,0E0,0E0,0E0],"parents":[2147483647,0,0,1,1,2,2,3,3,4,4,5,5,9,9,10,10,11,11,12,12,13,13,14,14,16,16,17,17,19,19,20,20,22,22,23,23,25,25,27,27,29,29,31,31,32,32],"right_children":[2,4,6,8,10,12,-1,-1,-1,14,16,18,20,22,24,-1,26,28,-1,30,32,-1,34,36,-1,38,-1,40,-1,42,-1,44,46,-1,-1,-1,-1,-1,-1,-1,-1,-1,-1,-1,-1,-1,-1],"split_conditions":[2.5E0,1.55E1,3.25E1,1.5E0,1.5E0,1.55E1,-1.6769357E-1,5.1127475E-2,2.5293228E-1,5.35E1,1.65E1,1.15E1,2.55E1,1.75E1,7.55E1,-1.4725044E-1,5.05E1,6.5E0,1.781285E-1,2.425E1,2.75E1,2.187327E-1,4.75E1,6.35E1,1.4923939E-3,4.75E1,-1.1738133E-1,4.5E0,-1.7270273E-1,2.375E1,-1.5604961E-1,2.65E1,2.875E1,4.0245336E-2,1.4067349E-1,-2.8295955E-2,-2.381563E-1,-1.8501045E-2,1.4725079E-1,-1.1254945E-2,1.23062305E-1,-1.07763395E-1,2.2820296E-2,-6.3495745E-4,1.1181058E-1,-2.3781025E-1,-4.8839968E-2],"split_indices":[0,1,1,0,0,1,0,0,0,1,1,1,1,1,1,0,1,1,0,1,1,0,1,1,0,1,0,1,0,1,0,1,1,0,0,0,0,0,0,0,0,0,0,0,0,0,0],"sum_hessian":[1.8690874E2,9.021198E1,9.6696754E1,3.5277288E0,8.668426E1,8.4150764E1,1.254599E1,1.0454801E0,2.4822485E0,4.717171E1,3.9512543E1,1.26114855E1,7.1539276E1,3.2432495E1,1.4739219E1,3.0854676E0,3.6427074E1,1.0091348E1,2.5201373E0,2.7341158E1,4.4198116E1,1.1551621E0,3.1277332E1,7.0454755E0,7.693743E0,3.322499E1,3.2020855E0,6.7951784E0,3.2961695E0,2.4480518E1,2.8606403E0,4.754506E0,3.944361E1,2.5832376E1,5.4449544E0,5.666403E0,1.3790729E0,3.173328E1,1.4917104E0,5.636803E0,1.158375E0,2.182421E1,2.6563087E0,2.8606403E0,1.8938661E0,1.9454763E0,3.7498135E1],"tree_param":{"num_deleted":"0","num_feature":"2","num_nodes":"47","size_leaf_vector":"0"}},{"base_weights":[-7.953894E-2,3.9535597E-2,-1.9247378E-1,6.506657E-1,1.0276997E-2,-1.6097209E-1,-5.724279E-1,1.437424E-1,7.8948045E-1,2.6687281E-2,-4.8941037E-1,9.989497E-2,-1.8219982E-1,-8.027208E-1,-2.8713945E-1,1.0876418E-1,-6.862266E-2,-7.363047E-2,2.5562966E-1,-4.6490073E-1,-1.6361018E-1,3.3942184E-1,-5.8223027E-1,2.9427445E-1,-1.3293943E-2,-3.0194664E-1,-1.0862796E-2,2.4930386E-1,-4.1359326E-1,4.4873098E-1,-1.9084461E-1,-6.9439167E-1,-1.5709151E-1,1.5558313E-1,5.735615E-1,-1.2284825E-1,1.50923E-1,-1.1135395E-1,-6.346528E-1,3.6330655E-1,-5.3349968E-2,-3.0071568E-1,-1.5709972E-1],"default_left":[true,false,true,false,true,false,false,false,false,true,false,false,false,false,false,false,false,false,false,false,false,false,false,false,true,false,false,false,false,false,false,false,false,false,false,false,false,false,false,false,false,false,false],"id":6,"leaf_child_counts":[0,0,0,0,0,0,0,0,0,0,0,0,0,0,0,0,0,0,0,0,0,0,0,0,0,0,0,0,0,0,0,0,0,0,0,0,0,0,0,0,0,0,0],"left_children":[1,3,5,7,9,11,13,-1,-1,15,-1,17,19,-1,21,23,25,27,-1,-1,29,-1,31,33,35,37,39,-1,-1,-1,41,-1,-1,-1,-1,-1,-1,-1,-1,-1,-1,-1,-1],"loss_changes":[2.46377E0,1.5978625E0,1.031883E0,1.7389417E-1,7.236081E-1,5.0612783E-1,2.1617937E-1,0E0,0E0,6.711843E-1,0E0,2.1545616E-1,3.5400605E-1,0E0,1.0469553E0,1.0449042E0,5.3405094E-1,5.6618017E-1,0E0,0E0,1.3919101E0,0E0,5.7389736E-2,6.191423E-1,5.3462267E-1,4.2864788E-1,5.4394317E-1,0E0,0E0,0E0,2.3340344E-1,0E0,0E0,0E0,0E0,0E0,0E0,0E0,0E0,0E0,0E0,0E0,0E0],"parents":[2147483647,0,0,1,1,2,2,3,3,4,4,5,5,6,6,9,9,11,11,12,12,14,14,15,15,16,16,17,17,20,20,22,22,23,23,24,24,25,25,26,26,30,30],"right_children":[2,4,6,8,10,12,14,-1,-1,16,-1,18,20,-1,22,24,26,28,-1,-1,30,-1,32,34,36,38,40,-1,-1,-1,42,-1,-1,-1,-1,-1,-1,-1,-1,-1,-1,-1,-1],"split_conditions":[2.5E0,1.55E1,3.95E1,2.5E0,6.35E1,5.5E0,4.35E1,4.312272E-2,2.3684414E-1,1.5E0,-1.4682312E-1,2.5E0,1.15E1,-2.4081625E-1,4.525E1,3.65E1,2.35E1,1.5E0,7.66889E-2,-1.3947022E-1,1.55E1,1.01826556E-1,5.725E1,3.15E1,4.75E1,2.25E1,2.45E1,7.479116E-2,-1.2407798E-1,1.346193E-1,2.15E1,-2.083175E-1,-4.7127455E-2,4.667494E-2,1.7206845E-1,-3.6854476E-2,4.5276903E-2,-3.3406187E-2,-1.9039585E-1,1.0899197E-1,-1.600499E-2,-9.021471E-2,-4.7129918E-2],"split_indices":[0,1,1,1,1,1,1,0,0,0,0,1,1,0,1,1,1,1,0,0,1,0,1,1,1,1,1,0,0,0,1,0,0,0,0,0,0,0,0,0,0,0,0],"sum_hessian":[1.8164586E2,8.873583E1,9.291003E1,3.0838754E0,8.5651955E1,8.711136E1,5.798672E0,1.1005152E0,1.9833602E0,8.3844986E1,1.8069696E0,6.2762938E0,8.083506E1,2.2050097E0,3.5936623E0,4.497406E1,3.8870926E1,3.2179446E0,3.0583494E0,3.5061972E0,7.7328865E1,1.1025048E0,2.4911575E0,1.728797E1,2.768609E1,6.874283E0,3.1996643E1,1.7870651E0,1.4308795E0,2.6337957E0,7.469507E1,1.4700065E0,1.021151E0,1.2591982E1,4.695988E0,1.675813E1,1.0927962E1,5.2191525E0,1.6551307E0,2.4927669E0,2.9503876E1,1.5691889E1,5.900318E1],"tree_param":{"num_deleted":"0","num_feature":"2","num_nodes":"43","size_leaf_vector":"0"}},{"base_weights":[-5.9018493E-2,3.1377934E-2,-1.4605692E-1,5.8214486E-1,6.96142E-3,-1.1789668E-1,-5.0766164E-1,1.2340944E-1,7.191978E-1,2.0415658E-2,-4.1946685E-1,-5.2023638E-2,-1.7686196E-1,-7.3339796E-1,-2.4866605E-1,8.340228E-3,4.6772417E-1,-8.832003E-2,2.9074693E-1,-2.6186973E-1,-1.3513763E-1,2.7344635E-1,-5.226147E-1,2.765617E-2,-2.8138354E-1,-6.0557734E-2,-5.1643246E-1,-1.3202769E-1,-5.223971E-1,-4.2621933E-2,-2.1189614E-1,9.219149E-2,-4.1245084E-2,-1.2961586E-1,-3.8418227E-1,2.0528008E-1,-7.9248644E-2,-3.574161E-1,-5.6924954E-2,-1.16760306E-1,3.3414608E-1,-7.066635E-1,-1.169788E-1],"default_left":[true,false,true,false,true,true,false,false,false,true,false,true,false,false,false,true,false,true,false,false,false,false,false,true,false,false,false,false,false,false,false,false,false,false,false,false,false,false,false,false,false,false,false],"id":7,"leaf_child_counts":[0,0,0,0,0,0,0,0,0,0,0,0,0,0,0,0,0,0,0,0,0,0,0,0,0,0,0,0,0,0,0,0,0,0,0,0,0,0,0,0,0,0,0],"left_children":[1,3,5,7,9,11,13,-1,-1,15,-1,17,19,-1,21,23,-1,25,-1,27,29,-1,-1,31,33,35,-1,37,-1,39,41,-1,-1,-1,-1,-1,-1,-1,-1,-1,-1,-1,-1],"loss_changes":[1.4095931E0,1.1850048E0,8.6835194E-1,1.4646554E-1,5.0012606E-1,3.2433772E-1,1.849792E-1,0E0,0E0,4.4988427E-1,0E0,5.479167E-1,1.23846054E-1,0E0,7.7783763E-1,4.712758E-1,0E0,4.289727E-1,0E0,3.9494723E-1,2.1948922E-1,0E0,0E0,3.5310477E-1,3.2363117E-2,2.0258819E-1,0E0,1.5723708E-1,0E0,4.815834E-1,7.314628E-1,0E0,0E0,0E0,0E0,0E0,0E0,0E0,0E0,0E0,0E0,0E0,0E0],"parents":[2147483647,0,0,1,1,2,2,3,3,4,4,5,5,6,6,9,9,11,11,12,12,14,14,15,15,17,17,19,19,20,20,23,23,24,24,25,25,27,27,29,29,30,30],"right_children":[2,4,6,8,10,12,14,-1,-1,16,-1,18,20,-1,22,24,-1,26,-1,28,30,-1,-1,32,34,36,-1,38,-1,40,42,-1,-1,-1,-1,-1,-1,-1,-1,-1,-1,-1,-1],"split_conditions":[2.5E0,1.55E1,3.95E1,2.5E0,6.35E1,1.65E1,4.35E1,3.7022833E-2,2.1575935E-1,6.15E1,-1.2584007E-1,1.475E1,2.15E1,-2.200194E-1,4.525E1,5.55E1,1.4031726E-1,1.35E1,8.722408E-2,2.025E1,2.75E1,8.203391E-2,-1.5678442E-1,1.5E0,5.85E1,1.5E0,-1.5492974E-1,1.75E1,-1.5671913E-1,2.65E1,2.875E1,2.7657447E-2,-1.2373526E-2,-3.888476E-2,-1.15254685E-1,6.1584026E-2,-2.3774594E-2,-1.0722483E-1,-1.7077487E-2,-3.5028093E-2,1.0024383E-1,-2.1199906E-1,-3.5093643E-2],"split_indices":[0,1,1,1,1,1,1,0,0,1,0,1,1,0,1,1,0,1,0,1,1,0,0,0,1,1,0,1,0,1,1,0,0,0,0,0,0,0,0,0,0,0,0],"sum_hessian":[1.7757356E2,8.7420166E1,9.0153404E1,2.7413294E0,8.467883E1,8.487012E1,5.2832856E0,1.067778E0,1.6735516E0,8.3011856E1,1.6669828E0,4.0976032E1,4.389409E1,1.8442054E0,3.43908E0,8.182166E1,1.1901919E0,3.772375E1,3.2522793E0,1.2714268E1,3.117982E1,1.1841224E0,2.2549577E0,7.755556E1,4.266102E0,3.6498356E1,1.2253973E0,9.490932E0,3.2233355E0,1.4843944E1,1.6335875E1,3.9872017E1,3.7683544E1,2.6357145E0,1.6303872E0,1.7418219E0,3.4756535E1,1.4325936E0,8.058339E0,1.2979925E1,1.864019E0,1.592057E0,1.4743818E1],"tree_param":{"num_deleted":"0","num_feature":"2","num_nodes":"43","size_leaf_vector":"0"}},{"base_weights":[-4.6255685E-2,6.983031E-1,-5.4966506E-2,1.7671661E-2,-1.258468E-1,3.4756655E-1,-1.4982227E-3,-1.0227374E-1,-4.4331703E-1,4.1999766E-1,1.4636204E-1,4.8678823E-2,-9.297488E-2,-3.7195855E-1,-8.974354E-2,-6.7180204E-1,-2.0325032E-1,-4.3123305E-2,1.6420001E-1,-8.181095E-1,-2.3106379E-3,2.1799973E-1,-1.04391985E-1,2.2086494E-1,-4.5201614E-1,7.8883655E-2,-1.4895724E-1,4.0776753E-1,1.7104242E-2,5.581326E-1,-8.2932755E-2,-3.631654E-1,-8.8358104E-2],"default_left":[false,false,true,false,true,false,false,false,false,false,false,false,false,false,false,false,false,false,false,false,false,false,false,false,false,false,false,false,false,false,false,false,false],"id":8,"leaf_child_counts":[0,0,0,0,0,0,0,0,0,0,0,0,0,0,0,0,0,0,0,0,0,0,0,0,0,0,0,0,0,0,0,0,0],"left_children":[1,-1,3,5,7,9,11,13,15,-1,-1,17,19,-1,21,-1,23,25,27,-1,29,-1,31,-1,-1,-1,-1,-1,-1,-1,-1,-1,-1],"loss_changes":[1.1792893E0,0E0,9.022188E-1,5.520281E-1,6.176851E-1,8.387148E-3,3.8740048E-1,2.4970001E-1,1.8290448E-1,0E0,0E0,5.853068E-1,1.9632555E0,0E0,3.895703E-1,0E0,5.507369E-1,4.142661E-1,8.654603E-1,0E0,1.2920979E0,0E0,2.9299283E-1,0E0,0E0,0E0,0E0,0E0,0E0,0E0,0E0,0E0,0E0],"parents":[2147483647,0,0,2,2,3,3,4,4,5,5,6,6,7,7,8,8,11,11,12,12,14,14,16,16,17,17,18,18,20,20,22,22],"right_children":[2,-1,4,6,8,10,12,14,16,-1,-1,18,20,-1,22,-1,24,26,28,-1,30,-1,32,-1,-1,-1,-1,-1,-1,-1,-1,-1,-1],"split_conditions":[9.6000004E-1,2.0949094E-1,2.5E0,1.75E1,3.95E1,1.55E1,4.525E1,2.5E0,4.35E1,1.259993E-1,4.390861E-2,3.15E1,4.75E1,-1.1158757E-1,5.5E0,-2.0154062E-1,4.525E1,2.45E1,3.55E1,-2.4543287E-1,4.95E1,6.539992E-2,1.15E1,6.625948E-2,-1.3560484E-1,2.3665098E-2,-4.4687174E-2,1.2233026E-1,5.1312726E-3,1.6743979E-1,-2.4879828E-2,-1.08949624E-1,-2.6507432E-2],"split_indices":[1,0,0,1,1,1,1,1,1,0,0,1,1,0,1,0,1,1,1,0,1,0,1,0,0,0,0,0,0,0,0,0,0],"sum_hessian":[1.7491049E2,1.1072025E0,1.7380328E2,8.6207985E1,8.759531E1,3.7935667E0,8.241442E1,8.277145E1,4.823862E0,1.9898342E0,1.8037324E0,5.3523438E1,2.889098E1,2.4014122E0,8.037003E1,1.5501242E0,3.273738E0,3.0172626E1,2.3350811E1,2.3191175E0,2.6571863E1,3.0209985E0,7.734903E1,1.251774E0,2.021964E0,1.4133714E1,1.6038912E1,8.124987E0,1.5225825E1,2.5968795E0,2.3974983E1,3.2498186E0,7.409921E1],"tree_param":{"num_deleted":"0","num_feature":"2","num_nodes":"33","size_leaf_vector":"0"}},{"base_weights":[-3.342787E-2,-2.5553247E-2,-4.777968E-1,-3.578243E-2,7.2216696E-1,1.4848952E-1,-5.3077925E-2,6.1970606E-2,6.4392287E-1,6.2384114E-2,-9.686342E-2,4.343522E-1,-4.1912686E-2,3.0579293E-1,-5.053196E-3,-8.518213E-2,-6.7808497E-1,4.2057488E-2,-4.2575827E-1,5.16893E-1,1.8793644E-1,-7.755476E-1,5.1541533E-2,-2.1914482E-1,-5.5373363E-2],"default_left":[true,true,false,false,false,false,true,true,false,false,true,false,false,false,false,false,false,false,false,false,false,false,false,false,false],"id":9,"leaf_child_counts":[0,0,0,0,0,0,0,0,0,0,0,0,0,0,0,0,0,0,0,0,0,0,0,0,0],"left_children":[1,3,-1,5,-1,7,9,11,-1,13,15,-1,17,19,21,23,-1,-1,-1,-1,-1,-1,-1,-1,-1],"loss_changes":[5.949656E-1,1.3379635E0,0E0,5.5028653E-1,0E0,5.97334E-1,7.963413E-1,5.50604E-1,0E0,7.170602E-1,7.1442056E-1,0E0,3.9413783E-1,1.3853812E-1,1.571266E0,4.3765026E-1,0E0,0E0,0E0,0E0,0E0,0E0,0E0,0E0,0E0],"parents":[2147483647,0,0,1,1,3,3,5,5,6,6,7,7,9,9,10,10,12,12,13,13,14,14,15,15],"right_children":[2,4,-1,6,-1,8,10,12,-1,14,16,-1,18,20,22,24,-1,-1,-1,-1,-1,-1,-1,-1,-1],"split_conditions":[6.35E1,6.15E1,-1.4333904E-1,1.55E1,2.166501E-1,1.475E1,1.5E0,2.5E0,1.9317687E-1,2.75E1,5.525E1,1.3030566E-1,1.35E1,1.85E1,2.95E1,2.15E1,-2.034255E-1,1.2617247E-2,-1.277275E-1,1.5506792E-1,5.6380935E-2,-2.326643E-1,1.5462461E-2,-6.574345E-2,-1.661201E-2],"split_indices":[1,1,0,1,0,1,0,0,0,1,1,0,1,1,1,1,0,0,0,0,0,0,0,0,0],"sum_hessian":[1.7251625E2,1.7055142E2,1.9648231E0,1.6918898E2,1.3624444E0,1.3866393E1,1.5532259E2,1.2762692E1,1.103701E0,4.258953E1,1.1273306E2,2.089933E0,1.0672759E1,8.4728985E0,3.411663E1,1.1163598E2,1.097083E0,9.487666E0,1.1850934E0,1.8225795E0,6.650319E0,1.4652212E0,3.265141E1,1.9163261E1,9.247272E1],"tree_param":{"num_deleted":"0","num_feature":"2","num_nodes":"25","size_leaf_vector":"0"}},{"base_weights":[-2.3770696E-2,-1.7266434E-2,-4.111952E-1,-2.5752524E-2,5.831721E-1,3.1793937E-1,-3.224187E-2,-5.134082E-1,-2.451667E-2,1.9063544E-1,-3.9417528E-2,3.7731983E-2,4.4653556E-1,4.451993E-2,-7.138813E-2],"default_left":[true,true,false,false,false,false,false,false,false,false,true,false,false,false,false],"id":10,"leaf_child_counts":[0,0,0,0,0,0,0,0,0,0,0,0,0,0,0],"left_children":[1,3,-1,5,-1,-1,7,-1,9,11,13,-1,-1,-1,-1],"loss_changes":[4.254883E-1,8.8060755E-1,0E0,3.8599062E-1,0E0,0E0,6.053957E-1,0E0,5.354601E-1,4.0720865E-1,4.1869372E-1,0E0,0E0,0E0,0E0],"parents":[2147483647,0,0,1,1,3,3,6,6,8,8,9,9,10,10],"right_children":[2,4,-1,6,-1,-1,8,-1,10,12,14,-1,-1,-1,-1],"split_conditions":[6.35E1,6.15E1,-1.2335856E-1,1.5E0,1.7495163E-1,9.538182E-2,2.5E0,-1.5402246E-1,1.55E1,1.15E1,1.5E0,1.1319595E-2,1.3396068E-1,1.335598E-2,-2.141644E-2],"split_indices":[1,1,0,1,0,0,1,0,1,1,0,0,0,0,0],"sum_hessian":[1.7066808E2,1.6887746E2,1.7906259E0,1.6746771E2,1.4097365E0,2.2140143E0,1.652537E2,1.576904E0,1.636768E2,9.837691E0,1.5383911E2,6.8764033E0,2.9612875E0,4.2324753E1,1.1151435E2],"tree_param":{"num_deleted":"0","num_feature":"2","num_nodes":"15","size_leaf_vector":"0"}},{"base_weights":[-1.612902E-2,-1.0739843E-2,-3.5364324E-1,-1.7748138E-2,4.7660905E-1,-6.1441085E-4,-1.621138E-1,-8.658245E-3,3.4840667E-1,-7.313964E-1,-2.1293331E-2,5.032469E-3,-1.3274232E-1,-3.13768E-2,5.718442E-1,3.4990805E-1,-1.276491E-1,-1.5325485E-2,1.3567343E-1,-7.5912446E-1,-1.4592823E-2,4.0883422E-1,1.0292665E-1,-5.842132E-2,-3.5282987E-1],"default_left":[true,true,false,true,false,true,false,true,true,false,false,true,false,false,false,false,false,false,false,false,false,false,false,false,false],"id":11,"leaf_child_counts":[0,0,0,0,0,0,0,0,0,0,0,0,0,0,0,0,0,0,0,0,0,0,0,0,0],"left_children":[1,3,-1,5,-1,7,9,11,13,-1,15,17,19,-1,-1,21,23,-1,-1,-1,-1,-1,-1,-1,-1],"loss_changes":[3.0601585E-1,5.845913E-1,0E0,4.1360992E-1,0E0,4.255817E-1,1.4066281E0,2.522597E-1,3.0773154E-1,0E0,6.468222E-1,3.5938478E-1,1.0807606E0,0E0,0E0,1.1246651E-2,1.7562315E-1,0E0,0E0,0E0,0E0,0E0,0E0,0E0,0E0],"parents":[2147483647,0,0,1,1,3,3,5,5,6,6,7,7,8,8,10,10,11,11,12,12,15,15,16,16],"right_children":[2,4,-1,6,-1,8,10,12,14,-1,16,18,20,-1,-1,22,24,-1,-1,-1,-1,-1,-1,-1,-1],"split_conditions":[6.35E1,6.15E1,-1.06092975E-1,4.525E1,1.4298272E-1,4.45E1,4.75E1,3.625E1,1.5E0,-2.1941893E-1,4.95E1,3.15E1,3.75E1,-9.413041E-3,1.7155327E-1,4.85E1,5.85E1,-4.5976457E-3,4.070203E-2,-2.2773735E-1,-4.377847E-3,1.2265027E-1,3.0877996E-2,-1.7526397E-2,-1.0584897E-1],"split_indices":[1,1,0,1,0,1,1,1,0,0,1,1,1,0,0,1,1,0,0,0,0,0,0,0,0],"sum_hessian":[1.6932811E2,1.676825E2,1.6456101E0,1.6625526E2,1.4272424E0,1.495147E2,1.6740572E1,1.470997E2,2.414991E0,2.4881449E0,1.4252427E1,1.3334647E2,1.375323E1,1.2129226E0,1.2020683E0,2.6641324E0,1.1588294E1,1.1613213E2,1.7214334E1,1.3215854E0,1.2431644E1,1.6218569E0,1.0422754E0,9.826695E0,1.7615987E0],"tree_param":{"num_deleted":"0","num_feature":"2","num_nodes":"25","size_leaf_vector":"0"}},{"base_weights":[-1.2689486E-2,2.625244E-2,-5.132628E-2,3.9214757E-1,1.2993675E-2,-1.9470716E-2,-2.8264987E-1,5.0736997E-2,-6.046622E-2,-3.0773882E-2,1.3193463E-1,-1.6475126E-1,-3.636829E-1,1.8230783E-2,2.2404033E-1,-5.840183E-1,1.589538E-4,-1.1520717E-2,-4.014211E-1,-3.9441237E-1,2.1891274E-2,-6.047833E-1,-1.3622382E-1,5.5521913E-2,-2.952976E-1,3.5263118E-1,1.5923893E-2,4.0161133E-1,-5.4882865E-2,-2.8463248E-2,3.5580283E-1,-6.31751E-2,1.1227844E-1,1.4252527E-1,-3.3283788E-1,3.6689412E-4,1.9999571E-1,-2.9501442E-2,-6.841708E-1,3.645312E-2,5.545332E-1,-3.3943483E-1,3.5806924E-1,-2.225811E-2,-2.2211845E-1,-7.3318086E-3,-6.2580866E-1],"default_left":[true,false,true,false,false,true,false,false,false,true,false,false,false,false,false,false,false,true,false,false,false,false,false,false,true,true,false,false,true,true,false,false,false,false,false,false,false,false,false,false,false,false,false,false,false,false,false],"id":12,"leaf_child_counts":[0,0,0,0,0,0,0,0,0,0,0,0,0,0,0,0,0,0,0,0,0,0,0,0,0,0,0,0,0,0,0,0,0,0,0,0,0,0,0,0,0,0,0,0,0,0,0],"left_children":[1,3,5,-1,7,9,11,13,15,17,-1,19,21,23,25,-1,27,29,-1,-1,31,-1,33,35,37,39,41,-1,43,45,-1,-1,-1,-1,-1,-1,-1,-1,-1,-1,-1,-1,-1,-1,-1,-1,-1],"loss_changes":[2.5685224E-1,4.0841153E-1,6.2513626E-1,0E0,2.3399846E-1,1.3462989E-1,3.8340747E-2,3.0893275E-1,9.118519E-1,5.0779665E-1,0E0,2.6657632E-1,2.0647055E-1,5.7616234E-1,2.2687587E-1,0E0,6.129973E-1,4.413482E-1,0E0,0E0,3.9902814E-2,0E0,2.6671708E-1,3.4758505E-1,5.221955E-1,3.19547E-1,6.5226555E-1,0E0,1.2817863E-1,8.431722E-1,0E0,0E0,0E0,0E0,0E0,0E0,0E0,0E0,0E0,0E0,0E0,0E0,0E0,0E0,0E0,0E0,0E0],"parents":[2147483647,0,0,1,1,2,2,4,4,5,5,6,6,7,7,8,8,9,9,11,11,12,12,13,13,14,14,16,16,17,17,20,20,22,22,23,23,24,24,25,25,26,26,28,28,29,29],"right_children":[2,4,6,-1,8,10,12,14,16,18,-1,20,22,24,26,-1,28,30,-1,-1,32,-1,34,36,38,40,42,-1,44,46,-1,-1,-1,-1,-1,-1,-1,-1,-1,-1,-1,-1,-1,-1,-1,-1,-1],"split_conditions":[2.5E0,1.55E1,3.25E1,1.1764427E-1,4.525E1,3.075E1,3.95E1,3.95E1,4.75E1,2.95E1,3.958039E-2,3.475E1,4.35E1,3.625E1,4.25E1,-1.752055E-1,4.95E1,2.875E1,-1.20426334E-1,-1.1832371E-1,3.75E1,-1.8143499E-1,4.525E1,3.15E1,1.5E0,1.5E0,4.45E1,1.20483406E-1,6.05E1,2.75E1,1.06740855E-1,-1.895253E-2,3.3683535E-2,4.2757582E-2,-9.985137E-2,1.1006824E-4,5.9998717E-2,-8.850433E-3,-2.0525125E-1,1.0935936E-2,1.6635996E-1,-1.0183045E-1,1.0742078E-1,-6.6774334E-3,-6.663554E-2,-2.1995427E-3,-1.877426E-1],"split_indices":[0,1,1,0,1,1,1,1,1,1,0,1,1,1,1,0,1,1,0,0,1,0,1,1,0,0,1,0,1,1,0,0,0,0,0,0,0,0,0,0,0,0,0,0,0,0,0],"sum_hessian":[1.6881676E2,8.423602E1,8.458074E1,1.946378E0,8.228964E1,7.529591E1,9.284827E0,5.456417E1,2.7725473E1,7.080659E1,4.489321E0,5.017613E0,4.2672143E0,4.687677E1,7.6874013E0,1.9813652E0,2.5744108E1,6.829035E1,2.5162401E0,1.7504774E0,3.2671354E0,1.2662051E0,3.0010092E0,4.262934E1,4.24743E0,4.3223295E0,3.365072E0,2.3448994E0,2.3399208E1,6.6161224E1,2.1291263E0,1.8382028E0,1.4289325E0,1.3550258E0,1.6459833E0,3.1576921E1,1.1052419E1,3.1620333E0,1.0853965E0,2.1445372E0,2.177792E0,1.6545484E0,1.7105235E0,2.0527704E1,2.8715036E0,6.487839E1,1.2828366E0],"tree_param":{"num_deleted":"0","num_feature":"2","num_nodes":"47","size_leaf_vector":"0"}},{"base_weights":[-1.2250983E-2,2.517939E-1,-1.7054643E-2,-4.4961298E-1,-1.0446807E-2,2.478059E-1,-1.7388245E-2,4.2969424E-2,-4.0166155E-2,6.3487524E-1,1.2964477E-2,-4.5845523E-2,3.1077704E-1,6.0544237E-2,-1.3688287E-1,-3.4377508E-2,-3.903969E-1],"default_left":[false,false,false,false,false,false,true,false,true,false,false,true,false,false,false,false,false],"id":13,"leaf_child_counts":[0,0,0,0,0,0,0,0,0,0,0,0,0,0,0,0,0],"left_children":[1,-1,3,-1,5,-1,7,9,11,-1,13,15,-1,-1,-1,-1,-1],"loss_changes":[2.1786082E-1,0E0,4.706491E-1,0E0,2.997848E-1,0E0,2.2368652E-1,7.859508E-1,2.4889895E-1,0E0,3.1900397E-1,4.478019E-1,0E0,0E0,0E0,0E0,0E0],"parents":[2147483647,0,0,2,2,4,4,6,6,7,7,8,8,10,10,11,11],"right_children":[2,-1,4,-1,6,-1,8,10,12,-1,14,16,-1,-1,-1,-1,-1],"split_conditions":[1.5E0,7.553817E-2,2.5E0,-1.348839E-1,5.5E0,7.4341774E-2,1.5E0,1.75E1,6.15E1,1.9046257E-1,6.05E1,5.05E1,9.3233116E-2,1.8163271E-2,-4.1064862E-2,-1.0313253E-2,-1.17119074E-1],"split_indices":[1,0,1,0,1,0,0,1,1,0,1,1,0,0,0,0,0],"sum_hessian":[1.6737718E2,2.0719209E0,1.6530525E2,1.4784949E0,1.6382677E2,3.3798969E0,1.6044687E2,4.3717175E1,1.1672969E2,1.136596E0,4.258058E1,1.1572624E2,1.0034508E0,3.2771034E1,9.809547E0,1.1306284E2,2.663398E0],"tree_param":{"num_deleted":"0","num_feature":"2","num_nodes":"17","size_leaf_vector":"0"}},{"base_weights":[-7.7346084E-3,-3.7211902E-3,-2.7528924E-1,-1.01648085E-2,4.3191752E-1,8.751798E-3,-7.64898E-2,-7.760823E-4,3.200975E-1,-3.06468E-2,-2.6957804E-1,2.0726158E-1,-5.7912287E-3,6.805472E-1,-1.3086903E-1,-2.9002666E-1,2.0520901E-2,1.4980014E-2,-4.310788E-1,-3.796674E-1,1.6417973E-3,-8.147869E-2,-5.715259E-1,1.5264615E-1,-3.7819937E-2,-9.317374E-2,9.754452E-2],"default_left":[true,true,false,true,false,true,true,false,true,false,false,false,false,false,false,false,false,false,false,false,false,false,false,false,false,false,false],"id":14,"leaf_child_counts":[0,0,0,0,0,0,0,0,0,0,0,0,0,0,0,0,0,0,0,0,0,0,0,0,0,0,0],"left_children":[1,3,-1,5,-1,7,9,11,13,15,17,-1,19,-1,-1,21,23,25,-1,-1,-1,-1,-1,-1,-1,-1,-1],"loss_changes":[1.7853735E-1,4.69699E-1,0E0,2.068361E-1,0E0,3.8219285E-1,3.15436E-1,1.3258643E-1,7.1091443E-1,4.1314226E-1,3.2300836E-1,0E0,3.4504816E-1,0E0,0E0,2.5407973E-1,2.1050163E-1,3.9988115E-2,0E0,0E0,0E0,0E0,0E0,0E0,0E0,0E0,0E0],"parents":[2147483647,0,0,1,1,3,3,5,5,6,6,7,7,8,8,9,9,10,10,12,12,15,15,16,16,17,17],"right_children":[2,4,-1,6,-1,8,10,12,14,16,18,-1,20,-1,-1,22,24,26,-1,-1,-1,-1,-1,-1,-1,-1,-1],"split_conditions":[6.35E1,6.15E1,-8.258677E-2,3.55E1,1.2957527E-1,3.475E1,2.5E0,1.5E0,1.5E0,3.75E1,3.95E1,6.2178474E-2,2.5E0,2.0416416E-1,-3.926071E-2,3.625E1,4.25E1,3.75E1,-1.2932365E-1,-1.1390022E-1,4.925392E-4,-2.444361E-2,-1.7145777E-1,4.5793846E-2,-1.1345982E-2,-2.7952123E-2,2.9263357E-2],"split_indices":[1,1,0,1,0,1,0,1,0,1,1,0,1,0,0,1,1,1,0,0,0,0,0,0,0,0,0],"sum_hessian":[1.6621954E2,1.6476196E2,1.457582E0,1.6332288E2,1.439074E0,1.2775408E2,3.55688E1,1.249285E2,2.825586E0,2.9680725E1,5.888077E0,1.9914699E0,1.2293703E2,1.2874578E0,1.5381284E0,4.121222E0,2.5559504E1,2.4603248E0,3.427752E0,1.420264E0,1.2151676E2,3.1080651E0,1.0131569E0,7.333891E0,1.8225613E1,1.00948E0,1.4508449E0],"tree_param":{"num_deleted":"0","num_feature":"2","num_nodes":"27","size_leaf_vector":"0"}},{"base_weights":[-6.2627164E-3,-2.923344E-3,-2.3618084E-1,-8.24875E-3,3.562744E-1,-4.389327E-3,-2.4336922E-1,2.6117949E-2,-3.359852E-2,3.2746837E-1,1.5295584E-2,-9.60449E-3,-2.3543526E-1,-1.02163434E-1,2.99835E-2,3.9569873E-2,-3.600128E-2,-1.269464E-1,-3.3603972E-1],"default_left":[true,true,false,true,false,true,false,false,true,false,false,true,false,false,false,false,false,false,false],"id":15,"leaf_child_counts":[0,0,0,0,0,0,0,0,0,0,0,0,0,0,0,0,0,0,0],"left_children":[1,3,-1,5,-1,7,-1,9,11,-1,13,15,17,-1,-1,-1,-1,-1,-1],"loss_changes":[1.2709658E-1,3.1868988E-1,0E0,1.4741643E-1,0E0,1.452417E-1,0E0,2.552638E-1,4.0067664E-1,0E0,1.3778302E-1,9.930323E-2,5.3361177E-2,0E0,0E0,0E0,0E0,0E0,0E0],"parents":[2147483647,0,0,1,1,3,3,5,5,7,7,8,8,10,10,11,11,12,12],"right_children":[2,4,-1,6,-1,8,-1,10,12,-1,14,16,18,-1,-1,-1,-1,-1,-1],"split_conditions":[6.35E1,6.15E1,-7.0854254E-2,5.85E1,1.0688233E-1,2.5E0,-7.301077E-2,1.55E1,3.25E1,9.824052E-2,2.15E1,8.75E-1,3.95E1,-3.064903E-2,8.995051E-3,1.1870963E-2,-1.0800384E-2,-3.8083922E-2,-1.0081192E-1],"split_indices":[1,1,0,1,0,0,0,1,1,0,1,1,1,0,0,0,0,0,0],"sum_hessian":[1.6543654E2,1.6406633E2,1.3702141E0,1.626322E2,1.4341223E0,1.6100798E2,1.624223E0,7.88058E1,8.220218E1,1.7177001E0,7.7088104E1,7.440466E1,7.7975206E0,7.9062605E0,6.918185E1,2.5815023E1,4.8589638E1,4.8400216E0,2.9574988E0],"tree_param":{"num_deleted":"0","num_feature":"2","num_nodes":"19","size_leaf_vector":"0"}},{"base_weights":[-5.0655385E-3,-8.777146E-3,2.1798168E-1,-2.2828525E-3,-4.3049857E-1,3.5317063E-2,-1.8727826E-2,-2.175806E-2,1.6207232E-1,-3.3414736E-1,-2.1586488E-3,4.016909E-2,-3.7924233E-1,3.0627805E-1,6.432809E-2,1.305521E-1,-1.334835E-2,-3.5170484E-2,7.704233E-2,6.0630894E-1,7.746732E-2,-2.1964094E-1,2.1832366E-1,-7.234492E-2,2.5717428E-1,1.522619E-2,-5.0884977E-2],"default_left":[true,true,false,false,false,false,false,false,false,false,false,false,false,true,false,true,true,false,false,false,false,false,false,false,false,false,false],"id":16,"leaf_child_counts":[0,0,0,0,0,0,0,0,0,0,0,0,0,0,0,0,0,0,0,0,0,0,0,0,0,0,0],"left_children":[1,3,-1,5,-1,7,9,11,13,-1,15,17,-1,19,21,23,25,-1,-1,-1,-1,-1,-1,-1,-1,-1,-1],"loss_changes":[1.3915081E-1,4.482352E-1,0E0,1.0116398E-1,0E0,3.6384004E-1,5.9368217E-1,7.9499835E-1,1.9992316E-1,0E0,1.6370282E-1,8.862358E-2,0E0,3.6691105E-1,5.094209E-1,2.3887242E-1,1.0963312E-1,0E0,0E0,0E0,0E0,0E0,0E0,0E0,0E0,0E0,0E0],"parents":[2147483647,0,0,1,1,3,3,5,5,6,6,7,7,8,8,10,10,11,11,13,13,14,14,15,15,16,16],"right_children":[2,4,-1,6,-1,8,10,12,14,-1,16,18,-1,20,22,24,26,-1,-1,-1,-1,-1,-1,-1,-1,-1,-1],"split_conditions":[6.25E1,6.05E1,6.5394506E-2,2.425E1,-1.2914957E-1,2.15E1,2.55E1,2.025E1,2.25E1,-1.0024422E-1,2.75E1,1.15E1,-1.13772705E-1,2.5E0,2.375E1,2.5E0,2.5E0,-1.0551145E-2,2.31127E-2,1.818927E-1,2.3240197E-2,-6.589229E-2,6.54971E-2,-2.1703478E-2,7.715229E-2,4.5678574E-3,-1.5265494E-2],"split_indices":[1,1,0,1,0,1,1,1,1,0,1,1,0,0,1,0,0,0,0,0,0,0,0,0,0,0,0],"sum_hessian":[1.647731E2,1.6302101E2,1.7520952E0,1.6153882E2,1.4822016E0,4.8804417E1,1.127344E2,3.4222927E1,1.4581491E1,4.669852E0,1.08064545E2,2.9926397E1,4.296529E0,5.02882E0,9.552671E0,7.5736213E0,1.0049092E2,9.849017E0,2.0077381E1,1.4619687E0,3.5668514E0,3.2089891E0,6.343682E0,3.0749822E0,4.498639E0,5.739425E1,4.3096672E1],"tree_param":{"num_deleted":"0","num_feature":"2","num_nodes":"27","size_leaf_vector":"0"}},{"base_weights":[-3.800632E-3,-4.6235806E-4,-2.335888E-1,-5.458648E-3,3.3219877E-1,3.788445E-3,-8.716317E-2,-2.646591E-3,2.7430803E-1,-5.412394E-1,1.3609903E-2,8.8263415E-3,-8.5114285E-2,-9.595732E-2,5.2680534E-1,3.0669808E-1,-4.248953E-2,5.868749E-4,2.9307973E-1,-2.3059592E-1,-8.69342E-3,2.0394882E-2,-1.4265652E-1],"default_left":[true,true,false,true,false,true,false,true,true,false,false,true,false,false,false,false,false,false,false,false,false,false,false],"id":17,"leaf_child_counts":[0,0,0,0,0,0,0,0,0,0,0,0,0,0,0,0,0,0,0,0,0,0,0],"left_children":[1,3,-1,5,-1,7,9,11,13,-1,15,17,19,-1,-1,-1,21,-1,-1,-1,-1,-1,-1],"loss_changes":[1.2666675E-1,2.7422902E-1,0E0,1.23073444E-1,0E0,2.5645155E-1,7.6508516E-1,1.3744867E-1,3.7055147E-1,0E0,2.5188568E-1,2.990052E-1,1.9521466E-1,0E0,0E0,0E0,8.524585E-2,0E0,0E0,0E0,0E0,0E0,0E0],"parents":[2147483647,0,0,1,1,3,3,5,5,6,6,7,7,8,8,10,10,11,11,12,12,16,16],"right_children":[2,4,-1,6,-1,8,10,12,14,-1,16,18,20,-1,-1,-1,22,-1,-1,-1,-1,-1,-1],"split_conditions":[6.35E1,6.15E1,-7.0076644E-2,4.525E1,9.965964E-2,4.45E1,4.75E1,3.55E1,1.5E0,-1.6237181E-1,4.85E1,3.475E1,3.75E1,-2.8787196E-2,1.5804161E-1,9.2009425E-2,5.525E1,1.7606247E-4,8.792392E-2,-6.9178775E-2,-2.6080261E-3,6.1184647E-3,-4.279696E-2],"split_indices":[1,1,0,1,0,1,1,1,0,0,1,1,1,0,0,0,1,0,0,0,0,0,0],"sum_hessian":[1.6426588E2,1.6290132E2,1.3645556E0,1.6145993E2,1.441401E0,1.459009E2,1.5559029E1,1.434781E2,2.422796E0,2.0320199E0,1.3527008E1,1.2673909E2,1.673901E1,1.2336794E0,1.1891166E0,1.4555466E0,1.2071462E1,1.2414271E2,2.5963786E0,5.0699506E0,1.166906E1,7.9050784E0,4.1663833E0],"tree_param":{"num_deleted":"0","num_feature":"2","num_nodes":"23","size_leaf_vector":"0"}},{"base_weights":[-2.3764456E-3,-5.653973E-3,1.9308688E-1,1.9870787E-4,-3.9037135E-1,-3.640686E-3,1.8511677E-1,-2.626972E-4,-2.2872077E-1,1.669945E-1,-3.3715891E-3,-3.2973894E-1,1.576309E-3],"default_left":[true,true,false,true,false,true,false,false,false,false,false,false,false],"id":18,"leaf_child_counts":[0,0,0,0,0,0,0,0,0,0,0,0,0],"left_children":[1,3,-1,5,-1,7,-1,9,-1,-1,11,-1,-1],"loss_changes":[1.06778994E-1,3.6759558E-1,0E0,1.1553118E-1,0E0,1.211855E-1,0E0,8.27779E-2,0E0,0E0,2.5276494E-1,0E0,0E0],"parents":[2147483647,0,0,1,1,3,3,5,5,7,7,10,10],"right_children":[2,4,-1,6,-1,8,-1,10,-1,-1,12,-1,-1],"split_conditions":[6.25E1,6.05E1,5.7926066E-2,5.75E1,-1.1711141E-1,5.525E1,5.5535033E-2,1.5E0,-6.8616234E-2,5.0098352E-2,2.5E0,-9.892169E-2,4.7289272E-4],"split_indices":[1,1,0,1,0,1,0,1,0,0,1,0,0],"sum_hessian":[1.639723E2,1.6222322E2,1.749084E0,1.6077682E2,1.446404E0,1.5846693E2,2.3098855E0,1.571102E2,1.3567336E0,1.9050329E0,1.5520517E2,1.3375428E0,1.5386763E2],"tree_param":{"num_deleted":"0","num_feature":"2","num_nodes":"13","size_leaf_vector":"0"}},{"base_weights":[-2.4180324E-3,8.3749846E-4,-2.2781727E-1,-3.8203315E-3,3.0960828E-1,7.6573715E-2,-1.1141728E-2,6.342193E-3,4.6885878E-1,-1.8802117E-1,-6.0929866E-3,7.917191E-2,-3.5482928E-1,1.7213307E-2,-3.2330647E-2,-3.4390952E-2,2.0494536E-1,1.4762023E-1,-6.6421594E-4,-1.53501965E-2,-3.1520945E-1],"default_left":[true,true,false,false,false,false,false,false,false,false,true,false,false,false,true,false,false,false,false,false,false],"id":19,"leaf_child_counts":[0,0,0,0,0,0,0,0,0,0,0,0,0,0,0,0,0,0,0,0,0],"left_children":[1,3,-1,5,-1,7,9,11,-1,-1,13,15,-1,17,19,-1,-1,-1,-1,-1,-1],"loss_changes":[1.2122165E-1,2.3645307E-1,0E0,9.62901E-2,0E0,3.733899E-1,1.3234499E-1,3.5952574E-1,0E0,0E0,9.0060696E-2,1.6849485E-1,0E0,1.8233159E-1,3.2756308E-1,0E0,0E0,0E0,0E0,0E0,0E0],"parents":[2147483647,0,0,1,1,3,3,5,5,6,6,7,7,10,10,11,11,13,13,14,14],"right_children":[2,4,-1,6,-1,8,10,12,-1,-1,14,16,-1,18,20,-1,-1,-1,-1,-1,-1],"split_conditions":[6.35E1,6.15E1,-6.834518E-2,1.55E1,9.2882484E-2,1.475E1,1.65E1,1.35E1,1.4065763E-1,-5.6406353E-2,2.5E0,4.5E0,-1.0644879E-1,2.25E1,3.95E1,-1.03172865E-2,6.148361E-2,4.4286072E-2,-1.9926479E-4,-4.605059E-3,-9.4562836E-2],"split_indices":[1,1,0,1,0,1,1,1,0,0,0,1,0,1,1,0,0,0,0,0,0],"sum_hessian":[1.6393842E2,1.6258641E2,1.3520157E0,1.6114317E2,1.4432293E0,1.2660721E1,1.4848245E2,1.16001005E1,1.0606201E0,3.114839E0,1.4536761E2,1.0303255E1,1.2968456E0,7.7166435E1,6.820118E1,5.7962723E0,4.506983E0,8.428411E0,6.873802E1,6.533364E1,2.8675377E0],"tree_param":{"num_deleted":"0","num_feature":"2","num_nodes":"21","size_leaf_vector":"0"}},{"base_weights":[-1.7911716E-3,9.269888E-4,-1.9528164E-1,-2.9166809E-3,2.5639412E-1,3.924862E-3,-6.45484E-2,-1.9094422E-3,2.4688594E-1,-4.6198142E-1,1.8368706E-2,6.231417E-3,-7.951987E-2,-8.038906E-2,4.6491897E-1,2.6377642E-1,-2.84828E-2,-8.279889E-4,1.23832405E-1,-5.205881E-1,3.646033E-3,1.7193371E-3,-1.5485908E-1],"default_left":[true,true,false,true,false,true,false,true,true,false,false,true,false,false,false,false,false,false,false,false,false,false,false],"id":20,"leaf_child_counts":[0,0,0,0,0,0,0,0,0,0,0,0,0,0,0,0,0,0,0,0,0,0,0],"left_children":[1,3,-1,5,-1,7,9,11,13,-1,15,17,19,-1,-1,-1,21,-1,-1,-1,-1,-1,-1],"loss_changes":[8.666967E-2,1.609632E-1,0E0,6.844938E-2,0E0,2.081602E-1,5.429022E-1,9.152323E-2,2.8309304E-1,0E0,1.7284392E-1,1.0912587E-1,5.062867E-1,0E0,0E0,0E0,4.9796715E-2,0E0,0E0,0E0,0E0,0E0,0E0],"parents":[2147483647,0,0,1,1,3,3,5,5,6,6,7,7,8,8,10,10,11,11,12,12,16,16],"right_children":[2,4,-1,6,-1,8,10,12,14,-1,16,18,20,-1,-1,-1,22,-1,-1,-1,-1,-1,-1],"split_conditions":[6.35E1,6.15E1,-5.8584493E-2,4.525E1,7.691824E-2,4.45E1,4.75E1,3.625E1,1.5E0,-1.3859443E-1,4.85E1,3.475E1,3.75E1,-2.411672E-2,1.394757E-1,7.913293E-2,5.85E1,-2.4839668E-4,3.7149724E-2,-1.5617643E-1,1.09381E-3,5.1580113E-4,-4.6457727E-2],"split_indices":[1,1,0,1,0,1,1,1,0,0,1,1,1,0,0,0,1,0,0,0,0,0,0],"sum_hessian":[1.6344641E2,1.6216354E2,1.2828697E0,1.6073378E2,1.4297618E0,1.4551675E2,1.5217036E1,1.4307323E2,2.4435234E0,1.8375938E0,1.3379443E1,1.3032286E2,1.2750362E1,1.2294202E0,1.2141032E0,1.4025978E0,1.1976845E1,1.23879524E2,6.4433374E0,1.1883492E0,1.1562014E1,1.0462783E1,1.5140617E0],"tree_param":{"num_deleted":"0","num_feature":"2","num_nodes":"23","size_leaf_vector":"0"}},{"base_weights":[-1.9128756E-3,-5.0980756E-3,1.9218326E-1,6.0576765E-4,-3.869623E-1,-2.7743643E-3,1.6286394E-1,1.6485774E-5,-1.893705E-1,1.4339031E-1,-2.6227057E-3,-2.730678E-1,1.4172519E-3],"default_left":[true,true,false,true,false,true,false,false,false,false,false,false,false],"id":21,"leaf_child_counts":[0,0,0,0,0,0,0,0,0,0,0,0,0],"left_children":[1,3,-1,5,-1,7,-1,9,-1,-1,11,-1,-1],"loss_changes":[1.024657E-1,3.5412687E-1,0E0,8.879974E-2,0E0,8.2690395E-2,0E0,5.995049E-2,0E0,0E0,1.7036915E-1,0E0,0E0],"parents":[2147483647,0,0,1,1,3,3,5,5,7,7,10,10],"right_children":[2,4,-1,6,-1,8,-1,10,-1,-1,12,-1,-1],"split_conditions":[6.25E1,6.05E1,5.765498E-2,5.75E1,-1.16088696E-1,5.525E1,4.8859183E-2,1.5E0,-5.681115E-2,4.3017097E-2,2.5E0,-8.192034E-2,4.251756E-4],"split_indices":[1,1,0,1,0,1,0,1,0,0,1,0,0],"sum_hessian":[1.6315428E2,1.6147809E2,1.6761899E0,1.6008533E2,1.3927549E0,1.5778136E2,2.3039703E0,1.5644144E2,1.3399256E0,1.8637229E0,1.5457771E2,1.2950053E0,1.532827E2],"tree_param":{"num_deleted":"0","num_feature":"2","num_nodes":"13","size_leaf_vector":"0"}},{"base_weights":[-1.9956548E-3,7.188255E-4,-1.9483839E-1,-2.9958088E-3,2.4720362E-1,8.981382E-2,-7.3758196E-3,-4.662202E-2,1.9936769E-1,-2.4151474E-1,-5.05244E-4,1.1757637E-1,-2.303593E-1,3.2342958E-1,-8.89996E-3,-7.928266E-2,3.487735E-3],"default_left":[true,true,false,false,false,false,false,false,false,false,false,false,false,false,false,false,false],"id":22,"leaf_child_counts":[0,0,0,0,0,0,0,0,0,0,0,0,0,0,0,0,0],"left_children":[1,3,-1,5,-1,7,9,11,-1,-1,13,-1,-1,-1,15,-1,-1],"loss_changes":[8.60577E-2,1.4984591E-1,0E0,6.628083E-2,0E0,1.19164094E-1,2.4933335E-1,1.5029976E-1,0E0,0E0,4.152689E-1,0E0,0E0,0E0,1.3000637E-1,0E0,0E0],"parents":[2147483647,0,0,1,1,3,3,5,5,6,6,7,7,10,10,14,14],"right_children":[2,4,-1,6,-1,8,10,12,-1,-1,14,-1,-1,-1,16,-1,-1],"split_conditions":[6.35E1,6.15E1,-5.845152E-2,5.5E0,7.416109E-2,2.5E0,1.15E1,1.5E0,5.9810307E-2,-7.245442E-2,1.55E1,3.527291E-2,-6.910779E-2,9.702888E-2,2.15E1,-2.3784798E-2,1.0463205E-3],"split_indices":[1,1,0,1,0,1,1,1,0,0,1,0,0,0,1,0,0],"sum_hessian":[1.6313167E2,1.6184972E2,1.2819458E0,1.6041997E2,1.4297537E0,6.350547E0,1.5406941E2,3.084108E0,3.2664387E0,3.418543E0,1.5065088E2,1.8188033E0,1.2653048E0,2.8575144E0,1.4779337E2,2.131105E1,1.2648231E2],"tree_param":{"num_deleted":"0","num_feature":"2","num_nodes":"17","size_leaf_vector":"0"}},{"base_weights":[-1.1633043E-3,-3.9916174E-3,1.7099282E-1,1.1880486E-3,-3.530725E-1,3.4860946E-2,-1.0500096E-2,-1.201627E-1,7.389804E-2,9.889555E-3,-1.104662E-1,5.999864E-1,3.8539294E-2,1.5568179E-1,-7.856568E-4,-1.8174493E-1,-3.0370986E-2,-8.329326E-2,8.584702E-2,-5.39358E-2,4.378488E-2,-1.0748051E-1,-3.0106378E-1,3.4032118E-1,-1.2004313E-1],"default_left":[true,true,false,true,false,true,true,false,false,false,false,false,false,false,false,false,false,false,false,false,false,false,false,false,false],"id":23,"leaf_child_counts":[0,0,0,0,0,0,0,0,0,0,0,0,0,0,0,0,0,0,0,0,0,0,0,0,0],"left_children":[1,3,-1,5,-1,7,9,-1,11,13,15,-1,17,-1,19,21,23,-1,-1,-1,-1,-1,-1,-1,-1],"loss_changes":[8.038548E-2,2.933755E-1,0E0,6.359364E-2,0E0,2.6078692E-1,2.457341E-1,0E0,6.0695374E-1,1.5670538E-1,1.1103468E-1,0E0,1.96239E-1,0E0,2.2679204E-1,6.158468E-2,4.003157E-1,0E0,0E0,0E0,0E0,0E0,0E0,0E0,0E0],"parents":[2147483647,0,0,1,1,3,3,5,5,6,6,8,8,9,9,10,10,12,12,14,14,15,15,16,16],"right_children":[2,4,-1,6,-1,8,10,-1,12,14,16,-1,18,-1,20,22,24,-1,-1,-1,-1,-1,-1,-1,-1],"split_conditions":[6.25E1,6.05E1,5.1297847E-2,1.5E0,-1.0592175E-1,3E0,3.35E1,-3.604881E-2,1.75E1,5.5E0,3.95E1,1.7999592E-1,2.95E1,4.670454E-2,2.65E1,3.625E1,4.15E1,-2.4987979E-2,2.5754107E-2,-1.618074E-2,1.3135464E-2,-3.2244153E-2,-9.0319134E-2,1.0209636E-1,-3.601294E-2],"split_indices":[1,1,0,0,0,1,1,0,1,1,1,0,1,0,1,1,1,0,0,0,0,0,0,0,0],"sum_hessian":[1.6269084E2,1.6102225E2,1.6685833E0,1.5964996E2,1.3722914E0,4.062603E1,1.1902393E2,7.754256E0,3.2871773E1,9.960833E1,1.9415606E1,1.0645297E0,3.1807243E1,5.8691664E0,9.373916E1,9.601702E0,9.813905E0,8.6835785E0,2.3123667E1,4.2658722E1,5.1080437E1,7.0897827E0,2.5119188E0,1.3671452E0,8.44676E0],"tree_param":{"num_deleted":"0","num_feature":"2","num_nodes":"25","size_leaf_vector":"0"}},{"base_weights":[-3.3432333E-4,2.3536766E-3,-1.9142608E-1,-1.2167919E-3,2.3748218E-1,2.0049322E-2,-2.431537E-2,-7.1151922E-3,1.4099883E-1,-2.4652404E-1,-7.2414135E-3,1.4172378E-2,-2.8287083E-1,2.5835404E-1,6.113383E-2,1.0254013E-1,-2.1636017E-2,-9.674155E-3,6.614893E-2,5.0446445E-1,7.395044E-2,-1.5922217E-1,1.7660308E-1,3.27279E-1,2.079595E-2,1.15102865E-2,-1.0689323E-1],"default_left":[true,true,false,true,false,true,false,true,false,false,false,true,false,true,false,true,true,false,false,false,false,false,false,false,false,false,false],"id":24,"leaf_child_counts":[0,0,0,0,0,0,0,0,0,0,0,0,0,0,0,0,0,0,0,0,0,0,0,0,0,0,0],"left_children":[1,3,-1,5,-1,7,9,11,13,-1,15,17,-1,19,21,23,25,-1,-1,-1,-1,-1,-1,-1,-1,-1,-1],"loss_changes":[8.423784E-2,1.3616093E-1,0E0,7.928807E-2,0E0,2.7722016E-1,2.9167324E-1,4.125949E-1,1.2916973E-1,0E0,1.1735566E-1,8.1908815E-2,0E0,2.3288E-1,2.9562712E-1,1.5155593E-1,1.8559422E-1,0E0,0E0,0E0,0E0,0E0,0E0,0E0,0E0,0E0,0E0],"parents":[2147483647,0,0,1,1,3,3,5,5,6,6,7,7,8,8,10,10,11,11,13,13,14,14,15,15,16,16],"right_children":[2,4,-1,6,-1,8,10,12,14,-1,16,18,-1,20,22,24,26,-1,-1,-1,-1,-1,-1,-1,-1,-1,-1],"split_conditions":[6.35E1,6.15E1,-5.7427827E-2,2.425E1,7.124466E-2,2.15E1,2.55E1,2.025E1,2.25E1,-7.395721E-2,2.75E1,1.15E1,-8.486125E-2,2.5E0,2.375E1,1.5E0,2.5E0,-2.9022465E-3,1.984468E-2,1.5133934E-1,2.2185132E-2,-4.7766652E-2,5.2980926E-2,9.818371E-2,6.2387856E-3,3.4530861E-3,-3.206797E-2],"split_indices":[1,1,0,1,0,1,1,1,1,0,1,1,0,0,1,0,0,0,0,0,0,0,0,0,0,0,0],"sum_hessian":[1.6211987E2,1.6084503E2,1.2748501E0,1.5941905E2,1.4259819E0,8.3070625E1,7.634843E1,6.86038E1,1.4466821E1,4.4889164E0,7.185951E1,6.456794E1,4.0358605E0,4.9533634E0,9.513457E0,7.6201725E0,6.4239334E1,4.4819084E1,1.9748856E1,1.3782529E0,3.5751107E0,3.1407964E0,6.3726606E0,1.2312912E0,6.3888817E0,4.687879E1,1.7360546E1],"tree_param":{"num_deleted":"0","num_feature":"2","num_nodes":"27","size_leaf_vector":"0"}},{"base_weights":[4.7136794E-4,-2.0732335E-3,1.5445945E-1,2.6901162E-3,-3.2412833E-1,-7.844734E-2,6.129547E-3,7.21742E-2,-1.4795302E-1,3.708754E-1,9.990971E-4,-2.0974149E-1,-6.6853985E-2,-2.193932E-1,6.472238E-3,2.445854E-1,2.1995103E-4],"default_left":[true,true,false,false,false,false,false,false,false,false,false,false,false,false,false,false,false],"id":25,"leaf_child_counts":[0,0,0,0,0,0,0,0,0,0,0,0,0,0,0,0,0],"left_children":[1,3,-1,5,-1,7,9,-1,11,-1,13,-1,-1,-1,15,-1,-1],"loss_changes":[6.3971564E-2,2.47532E-1,0E0,4.4974465E-2,0E0,7.931559E-2,2.875886E-1,0E0,1.0100521E-2,0E0,1.8567197E-1,0E0,0E0,0E0,2.2328761E-1,0E0,0E0],"parents":[2147483647,0,0,1,1,3,3,5,5,6,6,8,8,10,10,14,14],"right_children":[2,4,-1,6,-1,8,10,-1,12,-1,14,-1,-1,-1,16,-1,-1],"split_conditions":[6.25E1,6.05E1,4.6337835E-2,4.5E0,-9.72385E-2,1.5E0,6.5E0,2.165226E-2,2.5E0,1.1126262E-1,1.15E1,-6.292245E-2,-2.0056196E-2,-6.581796E-2,1.55E1,7.337562E-2,6.598531E-5],"split_indices":[1,1,0,1,0,1,1,0,1,0,1,0,0,0,1,0,0],"sum_hessian":[1.6144287E2,1.5978894E2,1.6539224E0,1.5843723E2,1.3517157E0,5.556199E0,1.5288103E2,1.7422602E0,3.8139389E0,1.1317394E0,1.517493E2,1.2643815E0,2.5495574E0,2.7300556E0,1.4901924E2,2.8374631E0,1.4618178E2],"tree_param":{"num_deleted":"0","num_feature":"2","num_nodes":"17","size_leaf_vector":"0"}},{"base_weights":[3.5813692E-4,2.9775267E-3,-1.861336E-1,-4.4479774E-4,2.2753525E-1,5.7852683E-3,-5.747769E-2,7.224002E-4,2.1166956E-1,-4.0198568E-1,1.2396565E-2,7.4881716E-3,-6.4763315E-2,-8.400659E-2,4.1143233E-1,2.2374898E-1,-2.7416859E-2,-2.9357963E-3,7.5241484E-2,-4.4557628E-1,5.8421115E-3,-5.918136E-2,4.7404993E-2],"default_left":[true,true,false,true,false,true,false,true,true,false,false,true,false,false,false,false,true,false,false,false,false,false,false],"id":26,"leaf_child_counts":[0,0,0,0,0,0,0,0,0,0,0,0,0,0,0,0,0,0,0,0,0,0,0],"left_children":[1,3,-1,5,-1,7,9,11,13,-1,15,17,19,-1,-1,-1,21,-1,-1,-1,-1,-1,-1],"loss_changes":[7.9841465E-2,1.2386615E-1,0E0,5.705062E-2,0E0,1.5079692E-1,3.8559514E-1,6.355143E-2,2.3965016E-1,0E0,1.2490906E-1,9.197066E-2,3.6377898E-1,0E0,0E0,0E0,3.315227E-2,0E0,0E0,0E0,0E0,0E0,0E0],"parents":[2147483647,0,0,1,1,3,3,5,5,6,6,7,7,8,8,10,10,11,11,12,12,16,16],"right_children":[2,4,-1,6,-1,8,10,12,14,-1,16,18,20,-1,-1,-1,22,-1,-1,-1,-1,-1,-1],"split_conditions":[6.35E1,6.15E1,-5.584008E-2,4.525E1,6.826058E-2,4.45E1,4.75E1,3.625E1,1.5E0,-1.2059571E-1,4.85E1,3.15E1,3.75E1,-2.5201978E-2,1.234297E-1,6.7124695E-2,1.5E0,-8.807389E-4,2.2572447E-2,-1.336729E-1,1.7526335E-3,-1.7754408E-2,1.4221499E-2],"split_indices":[1,1,0,1,0,1,1,1,0,0,1,1,1,0,0,0,0,0,0,0,0,0,0],"sum_hessian":[1.6130937E2,1.6004547E2,1.263902E0,1.5862598E2,1.4194865E0,1.4381474E2,1.4811237E1,1.4134251E2,2.4722228E0,1.6960495E0,1.3115188E1,1.2890965E2,1.2432873E1,1.2304528E0,1.24177E0,1.3466201E0,1.1768568E1,1.12550255E2,1.6359388E1,1.1139499E0,1.1318923E1,8.40808E0,3.3604882E0],"tree_param":{"num_deleted":"0","num_feature":"2","num_nodes":"23","size_leaf_vector":"0"}},{"base_weights":[-1.8115141E-4,2.0069748E-3,-1.5944396E-1,-8.220638E-4,1.8879057E-1,1.5435213E-2,-1.8553179E-2,-6.16242E-3,1.1157007E-1,-1.9037129E-1,-5.5539454E-3,1.0045989E-2,-2.2171181E-1,2.1254972E-1,4.394394E-2,8.535044E-2,-1.7495608E-2,-6.378546E-2,1.792845E-2,4.3228096E-1,5.665171E-2,-1.2391276E-1,1.3099198E-1,-8.433272E-2,1.9390775E-1,1.0080024E-2,-8.8897124E-2],"default_left":[true,true,false,true,false,true,false,true,false,false,false,false,false,true,false,true,true,false,false,false,false,false,false,false,false,false,false],"id":27,"leaf_child_counts":[0,0,0,0,0,0,0,0,0,0,0,0,0,0,0,0,0,0,0,0,0,0,0,0,0,0,0],"left_children":[1,3,-1,5,-1,7,9,11,13,-1,15,17,-1,19,21,23,25,-1,-1,-1,-1,-1,-1,-1,-1,-1,-1],"loss_changes":[5.681998E-2,8.518799E-2,0E0,4.6267908E-2,0E0,1.7460036E-1,1.7037028E-1,2.4449325E-1,9.594792E-2,0E0,8.007008E-2,3.923397E-2,0E0,1.7842135E-1,1.695758E-1,1.7430374E-1,1.2850237E-1,0E0,0E0,0E0,0E0,0E0,0E0,0E0,0E0,0E0,0E0],"parents":[2147483647,0,0,1,1,3,3,5,5,6,6,7,7,8,8,10,10,11,11,13,13,14,14,15,15,16,16],"right_children":[2,4,-1,6,-1,8,10,12,14,-1,16,18,-1,20,22,24,26,-1,-1,-1,-1,-1,-1,-1,-1,-1,-1],"split_conditions":[6.35E1,6.15E1,-4.783319E-2,2.425E1,5.6637175E-2,2.15E1,2.55E1,2.025E1,2.25E1,-5.711139E-2,2.75E1,4.5E0,-6.6513546E-2,2.5E0,2.375E1,2.5E0,2.5E0,-1.913564E-2,5.378535E-3,1.296843E-1,1.6995514E-2,-3.717383E-2,3.9297596E-2,-2.5299817E-2,5.8172327E-2,3.0240072E-3,-2.6669139E-2],"split_indices":[1,1,0,1,0,1,1,1,1,0,1,1,0,0,1,0,0,0,0,0,0,0,0,0,0,0,0],"sum_hessian":[1.6112932E2,1.5991957E2,1.2097511E0,1.585143E2,1.4052707E0,8.276152E1,7.575278E1,6.834341E1,1.4418116E1,4.3683987E0,7.138438E1,6.44504E1,3.893006E0,4.923424E0,9.494692E0,7.5748105E0,6.3809566E1,5.5330195E0,5.891738E1,1.3075899E0,3.6158338E0,3.097744E0,6.396948E0,3.0424247E0,4.532386E0,4.6651386E1,1.7158178E1],"tree_param":{"num_deleted":"0","num_feature":"2","num_nodes":"27","size_leaf_vector":"0"}},{"base_weights":[1.7827225E-6,-2.5274295E-3,1.5675758E-1,2.1657771E-3,-3.225086E-1,-3.7000183E-4,1.21631406E-1,2.0500373E-3,-1.6194083E-1,6.5533005E-2,-2.6941726E-3,-1.8556863E-2,2.5105593E-1,-4.0052053E-1,3.6706484E-3],"default_left":[true,true,false,true,false,true,false,false,false,false,false,false,false,false,false],"id":28,"leaf_child_counts":[0,0,0,0,0,0,0,0,0,0,0,0,0,0,0],"left_children":[1,3,-1,5,-1,7,-1,9,-1,11,13,-1,-1,-1,-1],"loss_changes":[6.451688E-2,2.4119522E-1,0E0,4.8158903E-2,0E0,6.153246E-2,0E0,4.6918426E-2,0E0,1.7363241E-1,3.6955136E-1,0E0,0E0,0E0,0E0],"parents":[2147483647,0,0,1,1,3,3,5,5,7,7,9,9,10,10],"right_children":[2,4,-1,6,-1,8,-1,10,-1,12,14,-1,-1,-1,-1],"split_conditions":[6.25E1,6.05E1,4.7027275E-2,5.75E1,-9.6752584E-2,5.525E1,3.6489423E-2,1.35E1,-4.8582252E-2,8.5E0,1.475E1,-5.567059E-3,7.531678E-2,-1.2015616E-1,1.1011945E-3],"split_indices":[1,1,0,1,0,1,0,1,0,1,1,0,0,0,0],"sum_hessian":[1.6072952E2,1.5914563E2,1.5838948E0,1.5782404E2,1.3215945E0,1.5551987E2,2.3041637E0,1.5419757E2,1.3222892E0,9.831226E0,1.4436635E2,7.384234E0,2.4469926E0,1.2981734E0,1.4306818E2],"tree_param":{"num_deleted":"0","num_feature":"2","num_nodes":"15","size_leaf_vector":"0"}},{"base_weights":[-7.2223775E-4,1.4594273E-3,-1.5905827E-1,-1.3535995E-3,1.87547E-1,1.2399608E-3,-1.0456283E-1,-1.4129517E-3,9.302931E-2,-1.3904981E-1,-1.5551675E-2,3.5234445E-3,-7.774821E-2,1.1410136E-1,1.2194215E-2,-8.006686E-4,1.778529E-1,-3.4640983E-1,2.119239E-2],"default_left":[true,true,false,true,false,true,false,true,false,false,false,true,false,false,false,false,false,false,false],"id":29,"leaf_child_counts":[0,0,0,0,0,0,0,0,0,0,0,0,0,0,0,0,0,0,0],"left_children":[1,3,-1,5,-1,7,9,11,13,-1,-1,15,17,-1,-1,-1,-1,-1,-1],"loss_changes":[5.6143947E-2,8.434899E-2,0E0,4.275762E-2,0E0,3.8200364E-2,9.85688E-3,5.790052E-2,6.114401E-3,0E0,0E0,1.09141864E-1,2.5540364E-1,0E0,0E0,0E0,0E0,0E0,0E0],"parents":[2147483647,0,0,1,1,3,3,5,5,6,6,7,7,8,8,11,11,12,12],"right_children":[2,4,-1,6,-1,8,10,12,14,-1,-1,16,18,-1,-1,-1,-1,-1,-1],"split_conditions":[6.35E1,6.15E1,-4.7717486E-2,5.65E1,5.6264102E-2,5.25E1,5.95E1,4.525E1,5.525E1,-4.1714944E-2,-4.665503E-3,4.45E1,4.75E1,3.4230407E-2,3.6582646E-3,-2.4020059E-4,5.3355873E-2,-1.03922956E-1,6.3577173E-3],"split_indices":[1,1,0,1,0,1,1,1,1,0,0,1,1,0,0,0,0,0,0],"sum_hessian":[1.6085858E2,1.596496E2,1.2089815E0,1.582501E2,1.3994907E0,1.5533467E2,2.9154422E0,1.5192822E2,3.4064503E0,1.6961244E0,1.2193179E0,1.4359608E2,8.332131E0,2.375638E0,1.0308123E0,1.4109181E2,2.5042708E0,1.5694052E0,6.762726E0],"tree_param":{"num_deleted":"0","num_feature":"2","num_nodes":"19","size_leaf_vector":"0"}},{"base_weights":[-8.258387E-4,-3.1015477E-3,1.4119154E-1,1.1226396E-3,-2.928766E-1,-1.294854E-3,1.1517726E-1,6.550551E-4,-1.3212928E-1,5.179576E-2,-3.194883E-3,-4.231556E-2,1.5773916E-1,-3.3608478E-1,2.0911659E-3],"default_left":[true,true,false,true,false,true,false,false,false,false,false,false,false,false,false],"id":30,"leaf_child_counts":[0,0,0,0,0,0,0,0,0,0,0,0,0,0,0],"left_children":[1,3,-1,5,-1,7,-1,9,-1,11,13,-1,-1,-1,-1],"loss_changes":[5.2700207E-2,1.9634514E-1,0E0,4.3943033E-2,0E0,4.001801E-2,0E0,3.0726476E-2,0E0,1.1560382E-1,2.5637373E-1,0E0,0E0,0E0,0E0],"parents":[2147483647,0,0,1,1,3,3,5,5,7,7,9,9,10,10],"right_children":[2,4,-1,6,-1,8,-1,10,-1,12,14,-1,-1,-1,-1],"split_conditions":[6.25E1,6.05E1,4.2357463E-2,5.75E1,-8.786298E-2,5.525E1,3.4553178E-2,1.35E1,-3.9638788E-2,4.5E0,1.475E1,-1.2694669E-2,4.732175E-2,-1.0082544E-1,6.273498E-4],"split_indices":[1,1,0,1,0,1,0,1,0,1,1,0,0,0,0],"sum_hessian":[1.6070753E2,1.5913568E2,1.5718546E0,1.5783102E2,1.3046515E0,1.5552321E2,2.307812E0,1.5421977E2,1.3034426E0,9.925158E0,1.4429462E2,5.574139E0,4.3510184E0,1.2772926E0,1.4301732E2],"tree_param":{"num_deleted":"0","num_feature":"2","num_nodes":"15","size_leaf_vector":"0"}},{"base_weights":[-1.3165431E-3,8.2129636E-4,-1.5649286E-1,-1.9411718E-3,1.8437056E-1,4.1845322E-4,-9.6420534E-2,1.4859691E-2,-1.3228984E-2,-1.2776321E-1,-1.4466954E-2,2.9190397E-1,5.1551866E-3,-2.1525484E-3,-2.5337493E-1,-7.948998E-2,2.077735E-2,-1.178044E-1,1.2826447E-2],"default_left":[true,true,false,true,false,true,false,false,true,false,false,false,true,false,false,false,false,false,false],"id":31,"leaf_child_counts":[0,0,0,0,0,0,0,0,0,0,0,0,0,0,0,0,0,0,0],"left_children":[1,3,-1,5,-1,7,9,11,13,-1,-1,-1,15,17,-1,-1,-1,-1,-1],"loss_changes":[5.3800758E-2,8.1782445E-2,0E0,3.553034E-2,0E0,3.1003157E-2,8.126501E-3,2.0394947E-1,2.146267E-1,0E0,0E0,0E0,1.00627795E-1,1.3721442E-1,0E0,0E0,0E0,0E0,0E0],"parents":[2147483647,0,0,1,1,3,3,5,5,6,6,7,7,8,8,12,12,13,13],"right_children":[2,4,-1,6,-1,8,10,12,14,-1,-1,-1,16,18,-1,-1,-1,-1,-1],"split_conditions":[6.35E1,6.15E1,-4.694786E-2,5.65E1,5.531117E-2,2.5E0,5.95E1,1.55E1,3.95E1,-3.8328964E-2,-4.3400866E-3,8.7571196E-2,1.65E1,1.15E1,-7.6012485E-2,-2.3846997E-2,6.2332056E-3,-3.5341322E-2,3.8479343E-3],"split_indices":[1,1,0,1,0,0,1,1,1,0,0,0,1,1,0,0,0,0,0],"sum_hessian":[1.6078903E2,1.5958516E2,1.203872E0,1.5819373E2,1.3914361E0,1.5531042E2,2.8833117E0,7.541747E1,7.9892944E1,1.6813273E0,1.2019844E0,1.5682359E0,7.3849236E1,7.733493E1,2.5580146E0,1.0869114E1,6.2980125E1,8.080589E0,6.925434E1],"tree_param":{"num_deleted":"0","num_feature":"2","num_nodes":"19","size_leaf_vector":"0"}},{"base_weights":[-1.3825265E-3,-3.4538484E-3,1.2881038E-1,3.86873E-4,-2.6823378E-1,7.551972E-2,-3.1059934E-3,-2.7463198E-2,1.555046E-1,-2.0729716E-1,2.744273E-3,9.063057E-2,-1.6403052E-1,2.412114E-1,-3.4019712E-3,-1.556177E-1,8.885383E-4],"default_left":[true,true,false,false,false,false,false,false,false,false,false,false,false,false,false,false,false],"id":32,"leaf_child_counts":[0,0,0,0,0,0,0,0,0,0,0,0,0,0,0,0,0],"left_children":[1,3,-1,5,-1,7,9,11,-1,-1,13,-1,-1,-1,15,-1,-1],"loss_changes":[4.400382E-2,1.6278486E-1,0E0,4.1877206E-2,0E0,6.266138E-2,1.8285207E-1,7.855107E-2,0E0,0E0,2.1968955E-1,0E0,0E0,0E0,9.585644E-2,0E0,0E0],"parents":[2147483647,0,0,1,1,3,3,5,5,6,6,7,7,10,10,14,14],"right_children":[2,4,-1,6,-1,8,10,12,-1,-1,14,-1,-1,-1,16,-1,-1],"split_conditions":[6.25E1,6.05E1,3.8643114E-2,5.5E0,-8.047014E-2,2.5E0,1.15E1,1.5E0,4.6651382E-2,-6.218915E-2,1.55E1,2.7189171E-2,-4.920916E-2,7.236342E-2,1.65E1,-4.6685312E-2,2.6656152E-4],"split_indices":[1,1,0,1,0,1,1,1,0,0,1,0,0,0,1,0,0],"sum_hessian":[1.6052594E2,1.5897025E2,1.5556878E0,1.5768156E2,1.2886851E0,6.088769E0,1.5159279E2,2.9487767E0,3.1399925E0,3.2632198E0,1.4832957E2,1.761727E0,1.1870497E0,2.7660167E0,1.4556355E2,3.0236154E0,1.4253995E2],"tree_param":{"num_deleted":"0","num_feature":"2","num_nodes":"17","size_leaf_vector":"0"}},{"base_weights":[-1.3176263E-3,7.640349E-4,-1.52517E-1,-1.9285798E-3,1.799061E-1,5.8140624E-2,-6.2232683E-3,-3.8411412E-2,1.6664228E-1,-3.2794043E-1,-1.2518561E-3,7.416621E-2,-9.5304064E-2,3.1711382E-1,5.1779736E-2,2.8243795E-2,-1.2331732E-2,-1.3843307E-1,-4.2258583E-2,-7.36289E-2,2.218363E-1,3.6800382E-1,5.6364425E-3,-4.598603E-3,-2.6022914E-1],"default_left":[true,true,false,false,false,false,false,false,false,false,true,false,false,false,false,false,true,false,false,false,false,false,false,false,false],"id":33,"leaf_child_counts":[0,0,0,0,0,0,0,0,0,0,0,0,0,0,0,0,0,0,0,0,0,0,0,0,0],"left_children":[1,3,-1,5,-1,7,9,11,13,-1,15,-1,17,-1,19,21,23,-1,-1,-1,-1,-1,-1,-1,-1],"loss_changes":[5.089516E-2,7.7590324E-2,0E0,4.1317012E-2,0E0,1.1838566E-1,2.380018E-1,4.8500862E-2,7.381117E-2,0E0,4.865057E-2,0E0,4.982505E-3,0E0,1.0496226E-1,3.1026426E-1,2.0610382E-1,0E0,0E0,0E0,0E0,0E0,0E0,0E0,0E0],"parents":[2147483647,0,0,1,1,3,3,5,5,6,6,7,7,8,8,10,10,12,12,14,14,15,15,16,16],"right_children":[2,4,-1,6,-1,8,10,12,14,-1,16,-1,18,-1,20,22,24,-1,-1,-1,-1,-1,-1,-1,-1],"split_conditions":[6.35E1,6.15E1,-4.5755103E-2,1.35E1,5.397183E-2,4.5E0,1.475E1,1.5E0,6.5E0,-9.838214E-2,1.5E0,2.2249863E-2,2.5E0,9.513415E-2,1.05E1,1.85E1,5.05E1,-4.1529924E-2,-1.2677575E-2,-2.2088671E-2,6.6550896E-2,1.10401146E-1,1.6909328E-3,-1.3795809E-3,-7.806875E-2],"split_indices":[1,1,0,1,0,1,1,1,1,0,0,0,1,0,1,1,1,0,0,0,0,0,0,0,0],"sum_hessian":[1.6033214E2,1.5913615E2,1.1959853E0,1.5775424E2,1.3819084E0,9.689586E0,1.4806467E2,5.46894E0,4.220646E0,1.2645727E0,1.468001E2,1.7340442E0,3.7348955E0,1.0648569E0,3.155789E0,3.9663387E1,1.071367E2,1.1721587E0,2.562737E0,2.14269E0,1.0130991E0,1.5213503E0,3.8142036E1,1.0488343E2,2.253275E0],"tree_param":{"num_deleted":"0","num_feature":"2","num_nodes":"25","size_leaf_vector":"0"}},{"base_weights":[-6.0810347E-4,-9.238652E-3,2.9006088E-2,9.358502E-5,-5.694449E-1,1.0670087E-1,5.0523984E-3,-2.7872398E-3,1.495214E-1,2.1123482E-2,2.7210284E-3,5.1248964E-2,-7.823572E-3,-1.492727E-2,1.9347009E-1,-2.7628863E-1,-2.3841867E-3,5.6968655E-2,-2.3145664E-1,2.948194E-1,1.5721142E-2,2.7089627E-2,-1.4545034E-2],"default_left":[false,false,true,false,false,false,true,false,false,false,false,false,false,false,false,false,true,false,false,false,false,false,false],"id":34,"leaf_child_counts":[0,0,0,0,0,0,0,0,0,0,0,0,0,0,0,0,0,0,0,0,0,0,0],"left_children":[1,3,5,7,-1,-1,9,11,-1,-1,-1,13,15,17,19,-1,21,-1,-1,-1,-1,-1,-1],"loss_changes":[4.1393384E-2,6.553974E-1,6.748809E-2,5.3924456E-2,0E0,0E0,1.028657E-3,3.3855587E-2,0E0,0E0,0E0,1.0277423E-1,1.64816E-1,1.403924E-1,5.7367846E-2,0E0,4.056472E-2,0E0,0E0,0E0,0E0,0E0,0E0],"parents":[2147483647,0,0,1,1,2,2,3,3,6,6,7,7,11,11,12,12,13,13,14,14,16,16],"right_children":[2,4,6,8,-1,-1,10,12,-1,-1,-1,14,16,18,20,-1,22,-1,-1,-1,-1,-1,-1],"split_conditions":[7.7E1,6.35E1,1.5E0,6.15E1,-1.7083347E-1,3.201026E-2,2.5E0,1.35E1,4.485642E-2,6.3370448E-3,8.1630854E-4,8.5E0,1.475E1,5.5E0,9.5E0,-8.288659E-2,1.5E0,1.7090598E-2,-6.9437E-2,8.844583E-2,4.716343E-3,8.126888E-3,-4.3635103E-3],"split_indices":[1,1,0,1,0,0,0,1,0,0,0,1,1,1,1,0,0,0,0,0,0,0,0],"sum_hessian":[1.5990587E2,1.2435327E2,3.5552597E1,1.2329912E2,1.0541546E0,7.5639973E0,2.7988602E1,1.2192978E2,1.369342E0,2.5246456E0,2.5463955E1,9.613032E0,1.1231675E2,7.171253E0,2.4417796E0,1.2416183E0,1.1107513E2,5.9368844E0,1.2343688E0,1.1356333E0,1.3061463E0,3.2084778E1,7.899035E1],"tree_param":{"num_deleted":"0","num_feature":"2","num_nodes":"23","size_leaf_vector":"0"}},{"base_weights":[-1.303954E-3,-4.136956E-3,1.8747953E-1,-3.2114633E-4,-2.679603E-1,-2.6728953E-3,1.1097979E-1,1.732186E-2,-1.1442572E-2,-1.4059776E-2,8.472675E-2,-1.4989111E-1,-4.350338E-3,1.2530229E-2,-1.76521E-1,1.7308906E-1,2.6939454E-2,-7.0911795E-2,-1.8251604E-1,6.0332395E-2,-1.0050854E-2],"default_left":[true,true,false,true,false,false,false,false,false,false,false,true,false,false,false,false,false,false,false,false,false],"id":35,"leaf_child_counts":[0,0,0,0,0,0,0,0,0,0,0,0,0,0,0,0,0,0,0,0,0],"left_children":[1,3,-1,5,-1,7,-1,9,11,13,15,17,19,-1,-1,-1,-1,-1,-1,-1,-1],"loss_changes":[8.6662985E-2,1.6017464E-1,0E0,4.163398E-2,0E0,2.7488297E-2,0E0,1.02401815E-1,1.0616674E-1,1.4694987E-1,7.3677115E-2,6.400272E-4,3.9143875E-2,0E0,0E0,0E0,0E0,0E0,0E0,0E0,0E0],"parents":[2147483647,0,0,1,1,3,3,5,5,7,7,8,8,9,9,10,10,11,11,12,12],"right_children":[2,4,-1,6,-1,8,-1,10,12,14,16,18,20,-1,-1,-1,-1,-1,-1,-1,-1],"split_conditions":[6.25E1,6.05E1,5.624386E-2,5.75E1,-8.03881E-2,2.425E1,3.3293936E-2,2.15E1,2.55E1,2.025E1,2.25E1,2.5E0,2.75E1,3.759069E-3,-5.29563E-2,5.192672E-2,8.081837E-3,-2.1273538E-2,-5.4754812E-2,1.809972E-2,-3.0152563E-3],"split_indices":[1,1,0,1,0,1,0,1,1,1,1,0,1,0,0,0,0,0,0,0,0],"sum_hessian":[1.5959003E2,1.5819415E2,1.3958731E0,1.5692567E2,1.2684774E0,1.546343E2,2.2913826E0,4.684746E1,1.07786835E2,3.2505375E1,1.4342087E1,4.2713156E0,1.0351552E2,2.8726574E1,3.7788014E0,4.8819065E0,9.46018E0,2.176334E0,2.094982E0,7.607776E0,9.5907745E1],"tree_param":{"num_deleted":"0","num_feature":"2","num_nodes":"21","size_leaf_vector":"0"}},{"base_weights":[-1.2180123E-3,-3.5521188E-3,1.5170348E-1,-3.7312106E-4,-2.2384708E-1,-3.1074986E-3,5.9831645E-2,8.3887076E-4,-6.485351E-2,1.0598502E-1,1.287981E-2,-2.9687118E-3,1.5455662E-1,-2.9964963E-1,1.9007614E-2,-1.0150406E-1,8.772914E-2,2.9014628E-3,-4.6099775E-2,-1.0925015E-1,3.475401E-1,1.8704382E-1,-4.4275377E-2],"default_left":[true,true,false,true,false,true,false,true,false,false,false,true,true,false,false,false,false,false,false,false,false,false,false],"id":36,"leaf_child_counts":[0,0,0,0,0,0,0,0,0,0,0,0,0,0,0,0,0,0,0,0,0,0,0],"left_children":[1,3,-1,5,-1,7,9,11,13,-1,15,17,19,-1,21,-1,-1,-1,-1,-1,-1,-1,-1],"loss_changes":[5.783051E-2,1.11318745E-1,0E0,2.6165476E-2,0E0,3.7070047E-2,1.359909E-2,8.460577E-2,1.8563251E-1,0E0,4.7958266E-2,3.590273E-2,2.1584547E-1,0E0,8.988304E-2,0E0,0E0,0E0,0E0,0E0,0E0,0E0,0E0],"parents":[2147483647,0,0,1,1,3,3,5,5,6,6,7,7,8,8,10,10,11,11,12,12,14,14],"right_children":[2,4,-1,6,-1,8,10,12,14,-1,16,18,20,-1,22,-1,-1,-1,-1,-1,-1,-1,-1],"split_conditions":[6.25E1,6.05E1,4.5511045E-2,5.25E1,-6.7154124E-2,4.525E1,5.525E1,4.45E1,4.75E1,3.179551E-2,5.75E1,3.55E1,1.5E0,-8.989489E-2,4.85E1,-3.0451218E-2,2.6318744E-2,8.704389E-4,-1.3829933E-2,-3.277505E-2,1.0426204E-1,5.6113146E-2,-1.3282614E-2],"split_indices":[1,1,0,1,0,1,1,1,1,0,1,1,0,0,1,0,0,0,0,0,0,0,0],"sum_hessian":[1.5951E2,1.5807402E2,1.4359801E0,1.568128E2,1.2612156E0,1.5090729E2,5.9055166E0,1.4276892E2,8.138368E0,2.3440325E0,3.561484E0,1.40275E2,2.4939191E0,1.4645963E0,6.6737714E0,1.2678536E0,2.2936306E0,1.2429154E2,1.5983456E1,1.2369322E0,1.256987E0,1.2907506E0,5.383021E0],"tree_param":{"num_deleted":"0","num_feature":"2","num_nodes":"23","size_leaf_vector":"0"}},{"base_weights":[-7.8451686E-4,-2.6999495E-3,1.22873135E-1,-4.8238737E-5,-1.8716702E-1,-4.8518956E-2,3.2528841E-3,1.9574317E-1,-1.0639577E-1,2.3916742E-1,-2.758151E-3,7.5845676E-3,-2.8557417E-1,-1.3435881E-1,9.003256E-4,-7.4601375E-2,4.5732383E-2,5.6841165E-2,-2.2741705E-3],"default_left":[true,true,false,false,false,true,false,false,false,false,false,false,false,false,false,false,false,false,false],"id":37,"leaf_child_counts":[0,0,0,0,0,0,0,0,0,0,0,0,0,0,0,0,0,0,0],"left_children":[1,3,-1,5,-1,7,9,-1,11,-1,13,15,-1,-1,17,-1,-1,-1,-1],"loss_changes":[3.834439E-2,7.777496E-2,0E0,2.5401356E-2,0E0,1.6392702E-1,2.1144754E-1,0E0,1.8252388E-1,0E0,7.0383675E-2,2.3388498E-2,0E0,0E0,2.5520831E-2,0E0,0E0,0E0,0E0],"parents":[2147483647,0,0,1,1,3,3,5,5,6,6,8,8,10,10,11,11,14,14],"right_children":[2,4,-1,6,-1,8,10,-1,12,-1,14,16,-1,-1,18,-1,-1,-1,-1],"split_conditions":[6.25E1,6.05E1,3.686194E-2,1.15E1,-5.615011E-2,2.5E0,1.55E1,5.8722954E-2,6.5E0,7.175023E-2,1.65E1,1.5E0,-8.567225E-2,-4.0307645E-2,1.85E1,-2.2380413E-2,1.3719715E-2,1.705235E-2,-6.822512E-4],"split_indices":[1,1,0,1,0,0,1,0,1,0,1,1,0,0,1,0,0,0,0],"sum_hessian":[1.594871E2,1.5801761E2,1.4694957E0,1.5676437E2,1.2532237E0,9.122347E0,1.4764203E2,1.291148E0,7.8311987E0,2.7046545E0,1.4493738E2,5.37175E0,2.4594488E0,2.953957E0,1.4198343E2,1.3999976E0,3.9717524E0,6.7166862E0,1.3526674E2],"tree_param":{"num_deleted":"0","num_feature":"2","num_nodes":"19","size_leaf_vector":"0"}},{"base_weights":[-6.2627543E-4,1.0387498E-3,-1.2417107E-1,-1.7652477E-3,1.8849802E-1,3.104408E-4,-8.641728E-2,-2.0984767E-3,8.376389E-2,-1.2504326E-1,1.6544538E-3,2.1065818E-2,-9.519161E-3,3.267879E-2,1.10630445E-1,-1.301818E-2,3.0217933E-2,-2.997899E-1,-1.268597E-3],"default_left":[true,true,false,true,false,true,false,true,false,false,false,true,false,false,false,false,false,false,false],"id":38,"leaf_child_counts":[0,0,0,0,0,0,0,0,0,0,0,0,0,0,0,0,0,0,0],"left_children":[1,3,-1,5,-1,7,9,11,13,-1,-1,15,17,-1,-1,-1,-1,-1,-1],"loss_changes":[3.3102587E-2,8.399052E-2,0E0,2.775419E-2,0E0,3.1339917E-2,1.30668655E-2,2.6267845E-2,2.3874491E-3,0E0,0E0,1.1967804E-2,2.7633148E-1,0E0,0E0,0E0,0E0,0E0,0E0],"parents":[2147483647,0,0,1,1,3,3,5,5,6,6,7,7,8,8,11,11,12,12],"right_children":[2,4,-1,6,-1,8,10,12,14,-1,-1,16,18,-1,-1,-1,-1,-1,-1],"split_conditions":[6.35E1,6.15E1,-3.7251323E-2,5.65E1,5.6549408E-2,5.25E1,5.95E1,9.6000004E-1,5.45E1,-3.751298E-2,4.9633614E-4,1.5E0,2.5E0,9.803638E-3,3.3189137E-2,-3.905454E-3,9.06538E-3,-8.993697E-2,-3.8057912E-4],"split_indices":[1,1,0,1,0,1,1,1,1,0,0,0,1,0,0,0,0,0,0],"sum_hessian":[1.5929543E2,1.5815553E2,1.1398855E0,1.5680072E2,1.3548266E0,1.5402043E2,2.7802856E0,1.506468E2,3.3736262E0,1.6408589E0,1.1394267E0,3.6104557E1,1.14542244E2,1.9266181E0,1.4470083E0,7.5531073E0,2.8551453E1,2.1891193E0,1.1235313E2],"tree_param":{"num_deleted":"0","num_feature":"2","num_nodes":"19","size_leaf_vector":"0"}},{"base_weights":[-8.115153E-4,6.1238624E-2,-5.1081097E-3,-3.0733313E-2,1.6546081E-1,-2.7268755E-1,-1.0698491E-3,4.2118654E-2,-1.4390211E-1,2.788848E-1,6.793048E-2,-2.9060284E-3,1.1022435E-1,8.490426E-2,-1.2190182E-2,8.1977434E-2,2.052107E-2,-1.5456288E-4,-1.819555E-1,2.317212E-2,-8.840569E-3,3.0863655E-1,4.8141507E-3,-2.8142391E-3,-2.1003304E-1],"default_left":[false,false,false,false,false,false,true,false,false,false,false,true,false,false,false,false,false,true,false,false,true,false,false,false,false],"id":39,"leaf_child_counts":[0,0,0,0,0,0,0,0,0,0,0,0,0,0,0,0,0,0,0,0,0,0,0,0,0],"left_children":[1,3,5,7,9,-1,11,13,-1,-1,15,17,-1,-1,-1,-1,-1,19,-1,21,23,-1,-1,-1,-1],"loss_changes":[4.3072235E-2,1.0538319E-1,1.627877E-1,5.8840796E-2,3.7049472E-2,0E0,3.090874E-2,1.1882204E-2,0E0,0E0,1.0105763E-3,7.29956E-2,0E0,0E0,0E0,0E0,0E0,2.9986195E-2,0E0,2.0896114E-1,1.3014391E-1,0E0,0E0,0E0,0E0],"parents":[2147483647,0,0,1,1,2,2,3,3,4,4,6,6,7,7,10,10,11,11,17,17,19,19,20,20],"right_children":[2,4,6,8,10,-1,12,14,-1,-1,16,18,-1,-1,-1,-1,-1,20,-1,22,24,-1,-1,-1,-1],"split_conditions":[1.35E1,4.5E0,1.475E1,3.5E0,6.5E0,-8.180627E-2,6.25E1,1.5E0,-4.3170635E-2,8.3665445E-2,9.5E0,6.05E1,3.306731E-2,2.547128E-2,-3.6570546E-3,2.4593232E-2,6.1563216E-3,1.5E0,-5.4586653E-2,1.85E1,5.05E1,9.2590965E-2,1.4442452E-3,-8.442718E-4,-6.300992E-2],"split_indices":[1,1,1,1,1,0,1,1,0,0,1,1,0,0,0,0,0,0,0,1,1,0,0,0,0],"sum_hessian":[1.5938536E2,9.463498E0,1.4992186E2,5.401769E0,4.0617294E0,1.2398833E0,1.4868198E2,3.6682026E0,1.7335664E0,1.0181699E0,3.0435593E0,1.4722685E2,1.4551225E0,1.7366637E0,1.931539E0,1.7854184E0,1.2581409E0,1.4598436E2,1.2424885E0,3.915744E1,1.0682692E2,1.4106021E0,3.7746838E1,1.0470468E2,2.122238E0],"tree_param":{"num_deleted":"0","num_feature":"2","num_nodes":"25","size_leaf_vector":"0"}},{"base_weights":[-4.3424152E-4,1.2035443E-3,-1.2216403E-1,-1.3894183E-3,1.7534128E-1,5.197616E-2,-5.144701E-3,-1.10011315E-2,1.8481477E-1,-2.3002818E-1,-1.716679E-3,5.6239974E-2,-2.1719807E-1,2.747851E-1,1.707464E-2,-9.837562E-3,1.6283259E-2,-4.488811E-3,1.0040433E-1,-2.3508498E-3,-1.4872251E-1,1.4800815E-1,-9.430776E-5],"default_left":[true,true,false,false,false,false,false,false,false,false,true,false,false,false,false,true,false,false,false,false,false,false,false],"id":40,"leaf_child_counts":[0,0,0,0,0,0,0,0,0,0,0,0,0,0,0,0,0,0,0,0,0,0,0],"left_children":[1,3,-1,5,-1,7,9,11,13,-1,15,17,-1,-1,-1,19,21,-1,-1,-1,-1,-1,-1],"loss_changes":[3.2078926E-2,7.205089E-2,0E0,3.186871E-2,0E0,8.951427E-2,1.1387796E-1,1.2365685E-1,4.6910927E-2,0E0,2.1649994E-2,1.8837353E-2,0E0,0E0,0E0,1.0563745E-1,9.9429846E-2,0E0,0E0,0E0,0E0,0E0,0E0],"parents":[2147483647,0,0,1,1,3,3,5,5,6,6,7,7,8,8,10,10,11,11,15,15,16,16],"right_children":[2,4,-1,6,-1,8,10,12,14,-1,16,18,-1,-1,-1,20,22,-1,-1,-1,-1,-1,-1],"split_conditions":[6.35E1,6.15E1,-3.6649212E-2,1.35E1,5.2602384E-2,8.5E0,1.475E1,5.5E0,9.5E0,-6.9008455E-2,3.15E1,2.5E0,-6.5159425E-2,8.243553E-2,5.1223924E-3,3.025E1,3.225E1,-1.3466433E-3,3.01213E-2,-7.0525496E-4,-4.4616755E-2,4.4402447E-2,-2.829233E-5],"split_indices":[1,1,0,1,0,1,1,1,1,0,1,1,0,0,0,1,1,0,0,0,0,0,0],"sum_hessian":[1.5916614E2,1.5803008E2,1.1360667E0,1.5668895E2,1.3411237E0,9.456972E0,1.4723198E2,7.037674E0,2.419298E0,1.2181351E0,1.4601384E2,5.8554535E0,1.1822203E0,1.1593181E0,1.2599798E0,1.0093107E2,4.508277E1,2.8436356E0,3.0118182E0,9.673349E1,4.1975756E0,4.096593E0,4.0986176E1],"tree_param":{"num_deleted":"0","num_feature":"2","num_nodes":"23","size_leaf_vector":"0"}},{"base_weights":[-3.476136E-4,-1.89642E-3,1.00565895E-1,5.83728E-4,-1.7595525E-1,-3.6282085E-3,4.295252E-2,-2.1645908E-4,-7.921349E-2,7.5534254E-2,-3.4239877E-2,-3.5104924E-3,1.1920952E-1,-1.7549479E-1,1.524863E-1,4.6649197E-1,-3.147597E-2,1.22803554E-1,-1.7246419E-1,1.3426252E-3,-7.8420326E-2,2.1163955E-1,7.439898E-3,-2.816902E-1,-3.3249892E-2,-3.433361E-1,1.0694302E-1],"default_left":[true,true,false,true,false,true,true,true,true,false,false,true,true,false,false,false,false,false,false,false,false,false,false,false,false,false,false],"id":41,"leaf_child_counts":[0,0,0,0,0,0,0,0,0,0,0,0,0,0,0,0,0,0,0,0,0,0,0,0,0,0,0],"left_children":[1,3,-1,5,-1,7,9,11,13,15,17,19,21,23,-1,-1,25,-1,-1,-1,-1,-1,-1,-1,-1,-1,-1],"loss_changes":[2.5214657E-2,6.8598345E-2,0E0,2.8250953E-2,0E0,3.7148755E-2,3.858582E-2,5.506093E-2,1.6555527E-1,4.4882533E-1,1.28336E-1,4.959971E-2,3.723798E-2,6.405023E-2,0E0,0E0,4.2884678E-1,0E0,0E0,0E0,0E0,0E0,0E0,0E0,0E0,0E0,0E0],"parents":[2147483647,0,0,1,1,3,3,5,5,6,6,7,7,8,8,9,9,10,10,11,11,12,12,13,13,16,16],"right_children":[2,4,-1,6,-1,8,10,12,14,16,18,20,22,24,-1,-1,26,-1,-1,-1,-1,-1,-1,-1,-1,-1,-1],"split_conditions":[6.25E1,6.05E1,3.016977E-2,4.65E1,-5.2786577E-2,4.25E1,1.5E0,4.075E1,2.5E0,4.85E1,5.05E1,3.625E1,1.5E0,4.45E1,4.574589E-2,1.399476E-1,5.05E1,3.684107E-2,-5.173926E-2,4.0278758E-4,-2.3526099E-2,6.3491866E-2,2.2319695E-3,-8.450706E-2,-9.974968E-3,-1.03000835E-1,3.2082908E-2],"split_indices":[1,1,0,1,0,1,0,1,0,1,1,1,0,1,0,0,1,0,0,0,0,0,0,0,0,0,0],"sum_hessian":[1.5910663E2,1.5766797E2,1.4386584E0,1.5643558E2,1.2323897E0,1.43122E2,1.3313578E1,1.3790036E2,5.2216473E0,9.377119E0,3.9364583E0,1.351434E2,2.7569494E0,3.8601604E0,1.3614869E0,1.2931874E0,8.083932E0,1.895009E0,2.0414493E0,1.27843025E2,7.3003774E0,1.0199492E0,1.7370003E0,1.6488582E0,2.2113023E0,2.0299687E0,6.053963E0],"tree_param":{"num_deleted":"0","num_feature":"2","num_nodes":"27","size_leaf_vector":"0"}},{"base_weights":[-7.068619E-5,1.5237427E-3,-1.19055465E-1,-8.9081295E-4,1.6439861E-1,3.738534E-2,-4.193497E-3,-3.983761E-2,2.3808704E-1,-1.1376805E-1,-1.1815323E-3,1.8469328E-1,-9.343683E-2,2.845936E-1,7.46564E-2,1.2103538E-2,-1.6033882E-2,2.6774948E-2,-2.4917758E-1,-4.3806788E-3,5.2887388E-2,-3.593683E-3,-2.4409002E-1],"default_left":[true,true,false,false,false,false,false,true,false,false,true,false,false,false,false,true,true,false,false,false,false,false,false],"id":42,"leaf_child_counts":[0,0,0,0,0,0,0,0,0,0,0,0,0,0,0,0,0,0,0,0,0,0,0],"left_children":[1,3,-1,5,-1,7,9,11,13,-1,15,-1,17,-1,-1,19,21,-1,-1,-1,-1,-1,-1],"loss_changes":[3.0561863E-2,6.2680006E-2,0E0,2.008985E-2,0E0,2.051683E-1,4.806883E-2,1.3729425E-1,6.5066367E-3,0E0,2.844127E-2,0E0,1.6985437E-1,0E0,0E0,5.1417135E-2,1.9210635E-1,0E0,0E0,0E0,0E0,0E0,0E0],"parents":[2147483647,0,0,1,1,3,3,5,5,6,6,7,7,8,8,10,10,12,12,15,15,16,16],"right_children":[2,4,-1,6,-1,8,10,12,14,-1,16,-1,18,-1,-1,20,22,-1,-1,-1,-1,-1,-1],"split_conditions":[6.35E1,6.15E1,-3.571664E-2,1.55E1,4.9319584E-2,1.15E1,1.65E1,2.5E0,1.425E1,-3.4130417E-2,2.5E0,5.5407986E-2,5.5E0,8.537809E-2,2.239692E-2,3.95E1,3.95E1,8.032485E-3,-7.475328E-2,-1.3142037E-3,1.5866216E-2,-1.078105E-3,-7.322701E-2],"split_indices":[1,1,0,1,0,1,1,0,1,0,0,0,1,0,0,1,1,0,0,0,0,0,0],"sum_hessian":[1.5913922E2,1.5800905E2,1.1301711E0,1.5668085E2,1.328201E0,1.1625737E1,1.4505511E2,8.974265E0,2.6514728E0,2.896837E0,1.4215828E2,1.2581146E0,7.7161503E0,1.4869634E0,1.1645094E0,7.5136E1,6.702227E1,4.822151E0,2.893999E0,5.4144283E1,2.0991716E1,6.4518616E1,2.503658E0],"tree_param":{"num_deleted":"0","num_feature":"2","num_nodes":"23","size_leaf_vector":"0"}},{"base_weights":[-2.7059054E-6,4.744733E-2,-3.2484399E-3,-5.0785307E-2,1.6318105E-1,-2.3306344E-1,1.897162E-4,6.0774773E-2,-1.0465159E-1,2.0601714E-1,1.6961558E-2,1.6348938E-3,-1.0191156E-1,-3.2112833E-2,-1.4347658E-1,7.283119E-2,2.6967344E-1,-5.134955E-4,1.3696834E-1,3.8028217E-3,-3.8566962E-2,-3.6005476E-3,6.4139776E-2,-2.9427475E-1,1.035912E-2],"default_left":[false,false,false,false,false,false,true,false,false,false,false,true,false,false,false,false,false,true,false,true,false,false,false,false,false],"id":43,"leaf_child_counts":[0,0,0,0,0,0,0,0,0,0,0,0,0,0,0,0,0,0,0,0,0,0,0,0,0],"left_children":[1,3,5,7,9,-1,11,-1,13,15,-1,17,-1,-1,-1,-1,-1,19,-1,21,23,-1,-1,-1,-1],"loss_changes":[2.4749802E-2,1.252585E-1,1.1889138E-1,4.4386074E-2,2.7578473E-2,0E0,2.2180995E-2,0E0,8.445419E-3,1.2128517E-2,0E0,4.3129332E-2,0E0,0E0,0E0,0E0,0E0,2.425521E-2,0E0,5.952384E-2,1.9124165E-1,0E0,0E0,0E0,0E0],"parents":[2147483647,0,0,1,1,2,2,3,3,4,4,6,6,8,8,9,9,11,11,17,17,19,19,20,20],"right_children":[2,4,6,8,10,-1,12,-1,14,16,-1,18,-1,-1,-1,-1,-1,20,-1,22,24,-1,-1,-1,-1],"split_conditions":[1.35E1,4.5E0,1.475E1,1.5E0,9.5E0,-6.9919035E-2,6.35E1,1.8232433E-2,3.5E0,8.5E0,5.0884676E-3,6.15E1,-3.0573469E-2,-9.63385E-3,-4.3042973E-2,2.1849358E-2,8.090203E-2,4.525E1,4.1090503E-2,3.75E1,4.75E1,-1.0801643E-3,1.9241933E-2,-8.828243E-2,3.1077361E-3],"split_indices":[1,1,1,1,1,0,1,0,1,1,0,1,0,0,0,0,0,1,0,1,1,0,0,0,0],"sum_hessian":[1.587016E2,9.2887745E0,1.4941283E2,5.327813E0,3.9609609E0,1.2179011E0,1.4819492E2,1.6930857E0,3.6347275E0,2.7471924E0,1.2137684E0,1.4709685E2,1.0980735E0,1.9041753E0,1.7305522E0,1.5817925E0,1.1653999E0,1.4577884E2,1.3180021E0,1.3173636E2,1.4042485E1,1.1817639E2,1.3559967E1,1.4499214E0,1.2592565E1],"tree_param":{"num_deleted":"0","num_feature":"2","num_nodes":"25","size_leaf_vector":"0"}},{"base_weights":[-3.7527404E-4,-1.9283268E-3,1.0268947E-1,7.336675E-4,-1.8916558E-1,3.9919052E-2,-2.0199234E-3,-4.0833358E-2,1.3387384E-1,-1.967609E-1,9.1676373E-4,4.9702097E-2,-8.404551E-2,1.683835E-1,1.4161123E-2,1.9484421E-2,-5.274719E-3,-2.5792038E-2,-1.14949636E-1,5.9540246E-2,2.1879211E-1,-1.322585E-2,6.5807045E-2,-1.1909177E-1,3.2084703E-4],"default_left":[true,true,false,false,false,false,false,false,false,false,false,false,false,false,false,false,false,false,false,false,false,false,false,false,false],"id":44,"leaf_child_counts":[0,0,0,0,0,0,0,0,0,0,0,0,0,0,0,0,0,0,0,0,0,0,0,0,0],"left_children":[1,3,-1,5,-1,7,9,11,13,-1,15,-1,17,19,-1,21,23,-1,-1,-1,-1,-1,-1,-1,-1],"loss_changes":[2.5743874E-2,7.8994095E-2,0E0,1.7019667E-2,0E0,8.403452E-2,8.461013E-2,2.8962411E-2,1.835519E-2,0E0,1.6937042E-2,0E0,5.4245926E-3,7.84988E-3,0E0,5.667857E-2,7.047774E-2,0E0,0E0,0E0,0E0,0E0,0E0,0E0,0E0],"parents":[2147483647,0,0,1,1,3,3,5,5,6,6,7,7,8,8,10,10,12,12,13,13,15,15,16,16],"right_children":[2,4,-1,6,-1,8,10,12,14,-1,16,-1,18,20,-1,22,24,-1,-1,-1,-1,-1,-1,-1,-1],"split_conditions":[6.25E1,6.05E1,3.0806841E-2,1.35E1,-5.6749675E-2,4.5E0,1.475E1,1.5E0,9.5E0,-5.902827E-2,2.425E1,1.491063E-2,3.5E0,8.5E0,4.248337E-3,2.15E1,2.55E1,-7.737612E-3,-3.4484893E-2,1.7862074E-2,6.563763E-2,-3.967755E-3,1.9742114E-2,-3.5727534E-2,9.6254116E-5],"split_indices":[1,1,0,1,0,1,1,1,1,0,1,0,1,1,0,1,1,0,0,0,0,0,0,0,0],"sum_hessian":[1.5859679E2,1.5720914E2,1.3876488E0,1.559875E2,1.2216281E0,9.355505E0,1.46632E2,5.3353033E0,4.0202017E0,1.1978495E0,1.4543414E2,1.6752447E0,3.6600585E0,2.8050303E0,1.2151713E0,3.583162E1,1.0960253E2,1.9045724E0,1.755486E0,1.5782957E0,1.2267346E0,2.1420338E1,1.4411281E1,4.1854205E0,1.0541711E2],"tree_param":{"num_deleted":"0","num_feature":"2","num_nodes":"25","size_leaf_vector":"0"}},{"base_weights":[-5.6477095E-4,7.81796E-4,-1.0202365E-1,-1.1852717E-3,1.344666E-1,6.066679E-4,-7.575898E-2,-4.3067724E-2,3.577615E-3,-1.1278536E-1,6.0641435E-3,3.886023E-2,-1.9677606E-1,2.4084137E-1,-2.4479774E-3,-2.8330302E-2,8.6338595E-2,2.8528118E-1,7.7915356E-2,-8.547726E-2,-1.3961358E-4],"default_left":[true,true,false,true,false,false,false,false,false,false,false,false,false,false,false,false,false,false,false,false,false],"id":45,"leaf_child_counts":[0,0,0,0,0,0,0,0,0,0,0,0,0,0,0,0,0,0,0,0,0],"left_children":[1,3,-1,5,-1,7,9,11,13,-1,-1,15,-1,17,19,-1,-1,-1,-1,-1,-1],"loss_changes":[2.1886619E-2,4.184418E-2,0E0,2.1054156E-2,0E0,2.0202795E-2,1.1884168E-2,1.3254392E-1,2.0874006E-1,0E0,0E0,2.5748683E-2,0E0,3.95377E-3,2.7391657E-2,0E0,0E0,0E0,0E0,0E0,0E0],"parents":[2147483647,0,0,1,1,3,3,5,5,6,6,7,7,8,8,11,11,13,13,14,14],"right_children":[2,4,-1,6,-1,8,10,12,14,-1,-1,16,-1,18,20,-1,-1,-1,-1,-1,-1],"split_conditions":[6.35E1,6.15E1,-3.0607097E-2,5.65E1,4.0339984E-2,1.15E1,5.95E1,6.5E0,1.55E1,-3.383561E-2,1.8192431E-3,2.5E0,-5.903282E-2,1.425E1,1.65E1,-8.499091E-3,2.590158E-2,8.558436E-2,2.3374608E-2,-2.564318E-2,-4.1884075E-5],"split_indices":[1,1,0,1,0,1,1,1,1,0,0,1,0,1,1,0,0,0,0,0,0],"sum_hessian":[1.5861548E2,1.575172E2,1.098281E0,1.5620982E2,1.3073719E0,1.5351291E2,2.6969132E0,8.917975E0,1.4459494E2,1.5962005E0,1.1007129E0,6.304696E0,2.6132789E0,2.6160388E0,1.419789E2,2.7774289E0,3.5272675E0,1.4653603E0,1.1506786E0,2.8659103E0,1.3911299E2],"tree_param":{"num_deleted":"0","num_feature":"2","num_nodes":"21","size_leaf_vector":"0"}},{"base_weights":[-2.9150027E-4,-1.7038921E-3,9.378162E-2,7.795657E-4,-1.769512E-1,-8.643483E-4,7.841025E-2,6.640392E-4,-1.0549777E-1,-1.0323358E-3,7.8261994E-2,2.151548E-3,-5.194557E-2],"default_left":[true,true,false,true,false,true,false,true,false,true,false,false,false],"id":46,"leaf_child_counts":[0,0,0,0,0,0,0,0,0,0,0,0,0],"left_children":[1,3,-1,5,-1,7,-1,9,-1,11,-1,-1,-1],"loss_changes":[2.1345569E-2,6.893449E-2,0E0,2.0085976E-2,0E0,2.4793178E-2,0E0,2.026896E-2,0E0,2.4600562E-2,0E0,0E0,0E0],"parents":[2147483647,0,0,1,1,3,3,5,5,7,7,9,9],"right_children":[2,4,-1,6,-1,8,-1,10,-1,12,-1,-1,-1],"split_conditions":[6.25E1,6.05E1,2.8134488E-2,5.75E1,-5.308536E-2,5.525E1,2.3523077E-2,5.25E1,-3.1649332E-2,4.525E1,2.34786E-2,6.454644E-4,-1.5583672E-2],"split_indices":[1,1,0,1,0,1,0,1,0,1,0,0,0],"sum_hessian":[1.5844966E2,1.5707329E2,1.3763741E0,1.5586012E2,1.2131672E0,1.5359642E2,2.2637048E0,1.5236447E2,1.2319446E0,1.5007047E2,2.2940059E0,1.4213945E2,7.9310184E0],"tree_param":{"num_deleted":"0","num_feature":"2","num_nodes":"13","size_leaf_vector":"0"}},{"base_weights":[-3.614672E-4,9.704934E-4,-1.0083644E-1,-9.439838E-4,1.314802E-1,1.3829845E-3,-5.2769184E-2,-1.0581722E-3,1.488694E-1,-1.1417201E-1,1.0552557E-1,1.5103122E-3,-4.8765752E-2,-4.5351827E-1,9.266698E-2,-1.3929717E-3,1.1699136E-1,-2.4518485E-1,3.1713583E-2],"default_left":[true,true,false,true,false,true,true,true,false,false,false,true,false,false,false,false,false,false,false],"id":47,"leaf_child_counts":[0,0,0,0,0,0,0,0,0,0,0,0,0,0,0,0,0,0,0],"left_children":[1,3,-1,5,-1,7,9,11,-1,13,-1,15,17,-1,-1,-1,-1,-1,-1],"loss_changes":[2.1441296E-2,3.9698392E-2,0E0,1.9017363E-2,0E0,5.4636355E-2,7.790759E-2,1.8434908E-2,0E0,4.1841337E-1,0E0,4.8160277E-2,1.2926072E-1,0E0,0E0,0E0,0E0,0E0,0E0],"parents":[2147483647,0,0,1,1,3,3,5,5,6,6,7,7,9,9,11,11,12,12],"right_children":[2,4,-1,6,-1,8,10,12,-1,14,-1,16,18,-1,-1,-1,-1,-1,-1],"split_conditions":[6.35E1,6.15E1,-3.0250933E-2,5.35E1,3.9444063E-2,5.15E1,1.5E0,4.525E1,4.466082E-2,5.55E1,3.1657673E-2,4.45E1,4.75E1,-1.3605548E-1,2.7800096E-2,-4.1789154E-4,3.509741E-2,-7.355546E-2,9.514075E-3],"split_indices":[1,1,0,1,0,1,0,1,0,1,0,1,1,0,0,0,0,0,0],"sum_hessian":[1.5848323E2,1.5738715E2,1.0960839E0,1.560902E2,1.2969562E0,1.5031435E2,5.775848E0,1.4884355E2,1.4707944E0,4.362402E0,1.4134461E0,1.4215836E2,6.68519E0,1.2003906E0,3.1620116E0,1.3963574E2,2.5226142E0,1.3481989E0,5.3369913E0],"tree_param":{"num_deleted":"0","num_feature":"2","num_nodes":"19","size_leaf_vector":"0"}},{"base_weights":[-5.883826E-4,-6.759196E-3,2.0282231E-2,1.7322571E-3,-3.019442E-1,8.421477E-2,6.935833E-4,3.7855476E-2,-1.6011912E-3,1.4414188E-2,-1.1598949E-3,-3.9791416E-2,1.2909234E-1,-2.0520379E-1,2.4556022E-3,4.566338E-2,-8.023646E-2,1.6232228E-1,1.216146E-2,2.4103569E-2,-6.4412537E-3,-2.4678752E-2,-1.0943127E-1,5.3183272E-2,2.1451776E-1,2.7508664E-1,4.3966537E-3,-1.3778913E-2,1.3291049E-1],"default_left":[false,false,true,false,false,false,true,false,false,false,false,false,false,false,true,false,false,false,false,false,false,false,false,false,false,false,false,false,false],"id":48,"leaf_child_counts":[0,0,0,0,0,0,0,0,0,0,0,0,0,0,0,0,0,0,0,0,0,0,0,0,0,0,0,0,0],"left_children":[1,3,5,7,-1,-1,9,11,13,-1,-1,15,17,-1,19,-1,21,23,-1,25,27,-1,-1,-1,-1,-1,-1,-1,-1],"loss_changes":[2.0668514E-2,3.1080943E-1,4.5814298E-2,1.466972E-2,0E0,0E0,7.5540115E-4,7.8036726E-2,9.3039945E-2,0E0,0E0,2.551972E-2,1.732491E-2,0E0,2.150141E-2,0E0,4.8495587E-3,1.0162249E-2,0E0,1.5950526E-1,8.295672E-2,0E0,0E0,0E0,0E0,0E0,0E0,0E0,0E0],"parents":[2147483647,0,0,1,1,2,2,3,3,6,6,7,7,8,8,11,11,12,12,14,14,16,16,17,17,19,19,20,20],"right_children":[2,4,6,8,-1,-1,10,12,14,-1,-1,16,18,-1,20,-1,22,24,-1,26,28,-1,-1,-1,-1,-1,-1,-1,-1],"split_conditions":[7.7E1,6.05E1,1.5E0,1.35E1,-9.0583265E-2,2.5264433E-2,2.5E0,4.5E0,1.475E1,4.324257E-3,-3.4796848E-4,1.5E0,9.5E0,-6.1561137E-2,1.5E0,1.3699015E-2,3.5E0,8.5E0,3.648438E-3,1.85E1,4.95E1,-7.4036256E-3,-3.282938E-2,1.5954982E-2,6.435533E-2,8.2526E-2,1.3189962E-3,-4.133674E-3,3.987315E-2],"split_indices":[1,1,0,1,0,0,0,1,1,0,0,1,1,0,0,0,1,1,0,1,1,0,0,0,0,0,0,0,0],"sum_hessian":[1.5841948E2,1.2279024E2,3.5629246E1,1.2032309E2,2.4671483E0,7.582539E0,2.804671E1,9.290414E0,1.1103268E2,2.5313368E0,2.5515371E1,5.323624E0,3.9667895E0,1.2004737E0,1.098322E2,1.668754E0,3.6548703E0,2.7866707E0,1.1801188E0,3.149321E1,7.833899E1,1.8946553E0,1.7602149E0,1.5547223E0,1.2319485E0,1.3493456E0,3.0143866E1,7.527638E1,3.0626073E0],"tree_param":{"num_deleted":"0","num_feature":"2","num_nodes":"29","size_leaf_vector":"0"}},{"base_weights":[-9.272671E-5,-2.0785427E-3,1.3569474E-1,3.777263E-4,-8.247867E-2,-1.5901455E-3,6.810192E-2,-1.2570225E-1,-1.9317001E-2,2.7316646E-4,-8.7295234E-2,8.748222E-2,2.2798127E-3,-2.5811724E-3,6.655777E-2,1.1034856E-3,-6.2819056E-2,1.1613535E-1,-1.4366272E-2],"default_left":[true,true,false,true,false,true,false,false,false,true,false,false,false,true,false,false,false,false,false],"id":49,"leaf_child_counts":[0,0,0,0,0,0,0,0,0,0,0,0,0,0,0,0,0,0,0],"left_children":[1,3,-1,5,7,9,11,-1,-1,13,-1,-1,-1,15,17,-1,-1,-1,-1],"loss_changes":[4.3226827E-2,3.1224042E-2,0E0,2.0667471E-2,1.0367677E-2,2.4119547E-2,5.3862836E-3,0E0,0E0,2.8300304E-2,0E0,0E0,0E0,3.191926E-2,2.6443094E-2,0E0,0E0,0E0,0E0],"parents":[2147483647,0,0,1,1,3,3,4,4,5,5,6,6,9,9,13,13,14,14],"right_children":[2,4,-1,6,8,10,12,-1,-1,14,-1,-1,-1,16,18,-1,-1,-1,-1],"split_conditions":[6.25E1,5.65E1,4.0708423E-2,5.25E1,5.95E1,5.05E1,5.525E1,-3.7710674E-2,-5.7951007E-3,4.65E1,-2.6188571E-2,2.6244668E-2,6.8394386E-4,4.15E1,4.95E1,3.3104568E-4,-1.8845718E-2,3.4840606E-2,-4.309882E-3],"split_indices":[1,1,0,1,1,1,1,0,0,1,0,0,0,1,1,0,0,0,0],"sum_hessian":[1.5826183E2,1.5695119E2,1.3106308E0,1.5326419E2,3.6870048E0,1.4988547E2,3.3787236E0,1.6011317E0,2.0858731E0,1.4767175E2,2.2137148E0,2.3559732E0,1.0227504E0,1.4249664E2,5.1751122E0,1.3520787E2,7.2887745E0,2.9392715E0,2.2358408E0],"tree_param":{"num_deleted":"0","num_feature":"2","num_nodes":"19","size_leaf_vector":"0"}},{"base_weights":[-6.246125E-6,-1.6501283E-3,1.11036845E-1,-2.5729427E-5,-1.1675039E-1,-4.1196886E-2,2.7208542E-3,4.2429633E-2,-1.6810651E-1,2.196697E-1,-2.6700676E-3,-2.6396818E-2,9.696741E-2,2.586693E-1,7.22045E-2,-1.0657232E-2,1.50223E-2,3.711723E-2,-9.3719706E-2,-5.221397E-3,-1.0994886E-1,7.525196E-2,-9.982966E-3],"default_left":[true,true,false,false,false,false,false,false,false,false,true,false,false,false,false,true,false,false,false,false,false,false,false],"id":50,"leaf_child_counts":[0,0,0,0,0,0,0,0,0,0,0,0,0,0,0,0,0,0,0,0,0,0,0],"left_children":[1,3,-1,5,-1,7,9,11,-1,13,15,17,-1,-1,-1,19,21,-1,-1,-1,-1,-1,-1],"loss_changes":[2.9258331E-2,2.9527025E-2,0E0,1.783662E-2,0E0,1.118254E-1,1.7353867E-1,2.7877014E-2,0E0,2.0125657E-3,2.0690044E-2,1.9589521E-2,0E0,0E0,0E0,5.376569E-2,6.943074E-2,0E0,0E0,0E0,0E0,0E0,0E0],"parents":[2147483647,0,0,1,1,3,3,5,5,6,6,7,7,9,9,10,10,11,11,15,15,16,16],"right_children":[2,4,-1,6,-1,8,10,12,-1,14,16,18,-1,-1,-1,20,22,-1,-1,-1,-1,-1,-1],"split_conditions":[6.25E1,6.05E1,3.3311054E-2,1.15E1,-3.502512E-2,5.5E0,1.55E1,2.5E0,-5.0431956E-2,1.425E1,3.15E1,1.5E0,2.9090224E-2,7.760079E-2,2.166135E-2,3.025E1,3.55E1,1.113517E-2,-2.8115913E-2,-1.5664193E-3,-3.298466E-2,2.2575589E-2,-2.9948899E-3],"split_indices":[1,1,0,1,0,1,1,1,0,1,1,1,0,0,0,1,1,0,0,0,0,0,0],"sum_hessian":[1.5827922E2,1.56941E2,1.3382151E0,1.5574324E2,1.1977656E0,8.864562E0,1.4687868E2,5.7447534E0,3.1198087E0,2.597523E0,1.4428114E2,2.7677963E0,2.9769573E0,1.4578632E0,1.1396599E0,9.967901E1,4.4602142E1,1.6550502E0,1.112746E0,9.550316E1,4.175845E0,1.2495368E1,3.2106773E1],"tree_param":{"num_deleted":"0","num_feature":"2","num_nodes":"23","size_leaf_vector":"0"}},{"base_weights":[2.592665E-4,-1.0990448E-3,9.090498E-2,2.6390215E-4,-9.79392E-2,3.877362E-2,-2.0884294E-3,-4.2218518E-2,1.6317318E-1,-1.3123834E-1,8.8515325E-4,6.788517E-3,-1.0718223E-1,6.1356943E-2,2.0561181E-1,9.356568E-3,-2.0889895E-1,5.0967425E-2,-1.4736541E-3,3.0322744E-2,-1.718605E-2,-1.569684E-3,6.624779E-2,-3.193585E-2,2.5969697E-3],"default_left":[true,true,false,false,false,false,false,false,false,false,false,false,false,false,false,false,false,true,false,false,false,false,false,false,false],"id":51,"leaf_child_counts":[0,0,0,0,0,0,0,0,0,0,0,0,0,0,0,0,0,0,0,0,0,0,0,0,0],"left_children":[1,3,-1,5,-1,7,9,11,13,15,17,19,-1,-1,-1,-1,-1,21,23,-1,-1,-1,-1,-1,-1],"loss_changes":[1.9694056E-2,2.0850746E-2,0E0,1.4265752E-2,0E0,9.822644E-2,5.7153806E-2,2.0737333E-2,3.7188083E-3,3.8524777E-2,1.7342998E-2,3.0730865E-3,0E0,0E0,0E0,0E0,0E0,5.40472E-3,1.7513461E-2,0E0,0E0,0E0,0E0,0E0,0E0],"parents":[2147483647,0,0,1,1,3,3,5,5,6,6,7,7,8,8,9,9,10,10,11,11,17,17,18,18],"right_children":[2,4,-1,6,-1,8,10,12,14,16,18,20,-1,-1,-1,-1,-1,22,24,-1,-1,-1,-1,-1,-1],"split_conditions":[6.25E1,6.05E1,2.7271496E-2,9.5E0,-2.9381761E-2,4.5E0,1.475E1,3.5E0,8.5E0,1.35E1,1.75E1,1.5E0,-3.2154668E-2,1.8407084E-2,6.1683547E-2,2.8069704E-3,-6.266969E-2,2.5E0,2.15E1,9.096824E-3,-5.155815E-3,-4.7090522E-4,1.9874338E-2,-9.580755E-3,7.79091E-4],"split_indices":[1,1,0,1,0,1,1,1,1,1,1,1,0,0,0,0,0,0,1,0,0,0,0,0,0],"sum_hessian":[1.5814017E2,1.5677873E2,1.3614285E0,1.5558626E2,1.192476E0,8.06541E0,1.4752084E2,5.2850943E0,2.7803154E0,2.3493223E0,1.4517152E2,3.5229614E0,1.762133E0,1.5374756E0,1.2428399E0,1.1489003E0,1.2004219E0,5.602917E0,1.395686E2,1.6441861E0,1.8787754E0,1.4645976E0,4.13832E0,1.5645004E1,1.239236E2],"tree_param":{"num_deleted":"0","num_feature":"2","num_nodes":"25","size_leaf_vector":"0"}},{"base_weights":[1.6821899E-4,1.4538529E-3,-9.723577E-2,-1.1376216E-3,1.7820641E-1,5.2784313E-4,-7.071349E-2,-3.88231E-2,3.178467E-3,-1.0131913E-1,1.625894E-3,1.7028667E-1,-8.842392E-2,1.9808692E-1,-1.7214476E-3,2.6103329E-2,-2.3595735E-1,2.3817521E-1,5.8620144E-2,-8.1668146E-2,4.860002E-4],"default_left":[true,true,false,true,false,false,false,true,false,false,false,false,false,false,false,false,false,false,false,false,false],"id":52,"leaf_child_counts":[0,0,0,0,0,0,0,0,0,0,0,0,0,0,0,0,0,0,0,0,0],"left_children":[1,3,-1,5,-1,7,9,11,13,-1,-1,-1,15,17,19,-1,-1,-1,-1,-1,-1],"loss_changes":[2.007566E-2,7.2619595E-2,0E0,1.820757E-2,0E0,1.6200298E-2,8.297216E-3,1.16731554E-1,1.3913763E-1,0E0,0E0,0E0,1.5115806E-1,6.012425E-3,2.5233516E-2,0E0,0E0,0E0,0E0,0E0,0E0],"parents":[2147483647,0,0,1,1,3,3,5,5,6,6,7,7,8,8,12,12,13,13,14,14],"right_children":[2,4,-1,6,-1,8,10,12,14,-1,-1,-1,16,18,20,-1,-1,-1,-1,-1,-1],"split_conditions":[6.35E1,6.15E1,-2.9170731E-2,5.65E1,5.3461928E-2,1.15E1,5.95E1,2.5E0,1.55E1,-3.0395739E-2,4.877682E-4,5.1086005E-2,5.5E0,1.425E1,1.65E1,7.830999E-3,-7.078721E-2,7.1452565E-2,1.7586043E-2,-2.4500445E-2,1.4580006E-4],"split_indices":[1,1,0,1,0,1,1,0,1,0,0,0,1,1,1,0,0,0,0,0,0],"sum_hessian":[1.5818672E2,1.5709827E2,1.0884638E0,1.5580743E2,1.2908217E0,1.5313422E2,2.67322E0,8.802736E0,1.4433148E2,1.5969627E0,1.0762573E0,1.2211989E0,7.5815377E0,2.5725896E0,1.417589E2,4.7315774E0,2.8499603E0,1.4484825E0,1.1241072E0,2.841788E0,1.389171E2],"tree_param":{"num_deleted":"0","num_feature":"2","num_nodes":"21","size_leaf_vector":"0"}},{"base_weights":[3.958211E-4,-8.2683214E-4,8.2349144E-2,6.578595E-4,-1.0661055E-1,-8.1199256E-4,6.9641754E-2,6.599063E-4,-1.0148488E-1,8.779957E-2,1.5737815E-2,-9.008855E-4,7.037752E-2,2.0502338E-3,-4.8376553E-2],"default_left":[true,true,false,true,false,true,false,true,false,false,false,true,false,false,false],"id":53,"leaf_child_counts":[0,0,0,0,0,0,0,0,0,0,0,0,0,0,0],"left_children":[1,3,-1,5,-1,7,9,11,-1,-1,-1,13,-1,-1,-1],"loss_changes":[1.5996857E-2,2.4825681E-2,0E0,1.5918396E-2,0E0,2.2910342E-2,1.8238816E-3,1.6704585E-2,0E0,0E0,0E0,2.1194998E-2,0E0,0E0,0E0],"parents":[2147483647,0,0,1,1,3,3,5,5,6,6,7,7,11,11],"right_children":[2,4,-1,6,-1,8,10,12,-1,-1,-1,14,-1,-1,-1],"split_conditions":[6.25E1,6.05E1,2.4704745E-2,5.75E1,-3.1983167E-2,5.525E1,5.85E1,5.25E1,-3.0445466E-2,2.6339872E-2,4.7213444E-3,4.525E1,2.1113258E-2,6.1507017E-4,-1.4512966E-2],"split_indices":[1,1,0,1,0,1,1,1,0,0,0,1,0,0,0],"sum_hessian":[1.5796893E2,1.5662222E2,1.3467197E0,1.5543445E2,1.1877667E0,1.5315929E2,2.2751625E0,1.519314E2,1.2278845E0,1.2315078E0,1.0436548E0,1.4957E2,2.361396E0,1.4171756E2,7.8524437E0],"tree_param":{"num_deleted":"0","num_feature":"2","num_nodes":"15","size_leaf_vector":"0"}},{"base_weights":[2.782174E-4,1.5353826E-3,-9.5091425E-2,-7.78712E-4,1.5995258E-1,1.3564613E-3,-4.7819518E-2,-8.475248E-4,1.3400821E-1,-8.8289805E-2,5.9365742E-2,3.716507E-2,-3.576942E-3,-4.0081477E-1,1.00621805E-1,-4.7719494E-2,1.3907096E-1,-2.0925678E-1,-2.9925787E-4],"default_left":[true,true,false,true,false,true,true,false,false,false,false,false,false,false,false,false,false,false,false],"id":54,"leaf_child_counts":[0,0,0,0,0,0,0,0,0,0,0,0,0,0,0,0,0,0,0],"left_children":[1,3,-1,5,-1,7,9,11,-1,13,-1,15,17,-1,-1,-1,-1,-1,-1],"loss_changes":[1.9209074E-2,5.801426E-2,0E0,1.5797291E-2,